digraph Tree {
node [shape=box, style="filled, rounded", color="black", fontname="helvetica"] ;
edge [fontname="helvetica"] ;
0 [label=<vertical acc &le; -0.02<br/>gini = 0.554<br/>samples = 46509<br/>value = [12789, 3993, 27949, 1778]<br/>class = b>, fillcolor="#a6d3f3"] ;
1 [label=<lateral acc &le; -1.838<br/>gini = 0.001<br/>samples = 27936<br/>value = [14, 0, 27922, 0]<br/>class = b>, fillcolor="#399de5"] ;
0 -> 1 [labeldistance=2.5, labelangle=45, headlabel="True"] ;
2 [label=<phase &le; 1.337<br/>gini = 0.219<br/>samples = 48<br/>value = [6, 0, 42, 0]<br/>class = b>, fillcolor="#55abe9"] ;
1 -> 2 ;
3 [label=<gini = 0.0<br/>samples = 42<br/>value = [0, 0, 42, 0]<br/>class = b>, fillcolor="#399de5"] ;
2 -> 3 ;
4 [label=<gini = 0.0<br/>samples = 6<br/>value = [6, 0, 0, 0]<br/>class = l>, fillcolor="#e58139"] ;
2 -> 4 ;
5 [label=<lateral acc &le; 0.96<br/>gini = 0.001<br/>samples = 27888<br/>value = [8, 0, 27880, 0]<br/>class = b>, fillcolor="#399de5"] ;
1 -> 5 ;
6 [label=<RSSI &le; -1.562<br/>gini = 0.0<br/>samples = 26259<br/>value = [2, 0, 26257, 0]<br/>class = b>, fillcolor="#399de5"] ;
5 -> 6 ;
7 [label=<vertical acc &le; -0.254<br/>gini = 0.002<br/>samples = 1893<br/>value = [2, 0, 1891, 0]<br/>class = b>, fillcolor="#399de5"] ;
6 -> 7 ;
8 [label=<vertical acc &le; -0.463<br/>gini = 0.001<br/>samples = 1859<br/>value = [1, 0, 1858, 0]<br/>class = b>, fillcolor="#399de5"] ;
7 -> 8 ;
9 [label=<gini = 0.0<br/>samples = 1753<br/>value = [0, 0, 1753, 0]<br/>class = b>, fillcolor="#399de5"] ;
8 -> 9 ;
10 [label=<phase &le; -1.325<br/>gini = 0.019<br/>samples = 106<br/>value = [1, 0, 105, 0]<br/>class = b>, fillcolor="#3b9ee5"] ;
8 -> 10 ;
11 [label=<frontal acc &le; 0.531<br/>gini = 0.32<br/>samples = 5<br/>value = [1, 0, 4, 0]<br/>class = b>, fillcolor="#6ab6ec"] ;
10 -> 11 ;
12 [label=<gini = 0.0<br/>samples = 4<br/>value = [0, 0, 4, 0]<br/>class = b>, fillcolor="#399de5"] ;
11 -> 12 ;
13 [label=<gini = 0.0<br/>samples = 1<br/>value = [1, 0, 0, 0]<br/>class = l>, fillcolor="#e58139"] ;
11 -> 13 ;
14 [label=<gini = 0.0<br/>samples = 101<br/>value = [0, 0, 101, 0]<br/>class = b>, fillcolor="#399de5"] ;
10 -> 14 ;
15 [label=<frontal acc &le; 1.133<br/>gini = 0.057<br/>samples = 34<br/>value = [1, 0, 33, 0]<br/>class = b>, fillcolor="#3fa0e6"] ;
7 -> 15 ;
16 [label=<gini = 0.0<br/>samples = 33<br/>value = [0, 0, 33, 0]<br/>class = b>, fillcolor="#399de5"] ;
15 -> 16 ;
17 [label=<gini = 0.0<br/>samples = 1<br/>value = [1, 0, 0, 0]<br/>class = l>, fillcolor="#e58139"] ;
15 -> 17 ;
18 [label=<gini = 0.0<br/>samples = 24366<br/>value = [0, 0, 24366, 0]<br/>class = b>, fillcolor="#399de5"] ;
6 -> 18 ;
19 [label=<frontal acc &le; 0.751<br/>gini = 0.007<br/>samples = 1629<br/>value = [6, 0, 1623, 0]<br/>class = b>, fillcolor="#3a9de5"] ;
5 -> 19 ;
20 [label=<gini = 0.0<br/>samples = 1238<br/>value = [0, 0, 1238, 0]<br/>class = b>, fillcolor="#399de5"] ;
19 -> 20 ;
21 [label=<vertical acc &le; -0.487<br/>gini = 0.03<br/>samples = 391<br/>value = [6, 0, 385, 0]<br/>class = b>, fillcolor="#3c9fe5"] ;
19 -> 21 ;
22 [label=<frontal acc &le; 0.781<br/>gini = 0.01<br/>samples = 385<br/>value = [2, 0, 383, 0]<br/>class = b>, fillcolor="#3a9ee5"] ;
21 -> 22 ;
23 [label=<lateral acc &le; 1.057<br/>gini = 0.18<br/>samples = 20<br/>value = [2, 0, 18, 0]<br/>class = b>, fillcolor="#4fa8e8"] ;
22 -> 23 ;
24 [label=<RSSI &le; 0.137<br/>gini = 0.408<br/>samples = 7<br/>value = [2, 0, 5, 0]<br/>class = b>, fillcolor="#88c4ef"] ;
23 -> 24 ;
25 [label=<phase &le; -0.894<br/>gini = 0.444<br/>samples = 3<br/>value = [2, 0, 1, 0]<br/>class = l>, fillcolor="#f2c09c"] ;
24 -> 25 ;
26 [label=<gini = 0.0<br/>samples = 1<br/>value = [0, 0, 1, 0]<br/>class = b>, fillcolor="#399de5"] ;
25 -> 26 ;
27 [label=<gini = 0.0<br/>samples = 2<br/>value = [2, 0, 0, 0]<br/>class = l>, fillcolor="#e58139"] ;
25 -> 27 ;
28 [label=<gini = 0.0<br/>samples = 4<br/>value = [0, 0, 4, 0]<br/>class = b>, fillcolor="#399de5"] ;
24 -> 28 ;
29 [label=<gini = 0.0<br/>samples = 13<br/>value = [0, 0, 13, 0]<br/>class = b>, fillcolor="#399de5"] ;
23 -> 29 ;
30 [label=<gini = 0.0<br/>samples = 365<br/>value = [0, 0, 365, 0]<br/>class = b>, fillcolor="#399de5"] ;
22 -> 30 ;
31 [label=<frontal acc &le; 0.854<br/>gini = 0.444<br/>samples = 6<br/>value = [4, 0, 2, 0]<br/>class = l>, fillcolor="#f2c09c"] ;
21 -> 31 ;
32 [label=<gini = 0.0<br/>samples = 2<br/>value = [0, 0, 2, 0]<br/>class = b>, fillcolor="#399de5"] ;
31 -> 32 ;
33 [label=<gini = 0.0<br/>samples = 4<br/>value = [4, 0, 0, 0]<br/>class = l>, fillcolor="#e58139"] ;
31 -> 33 ;
34 [label=<RSSI &le; 1.518<br/>gini = 0.472<br/>samples = 18573<br/>value = [12775, 3993, 27, 1778]<br/>class = l>, fillcolor="#efb388"] ;
0 -> 34 [labeldistance=2.5, labelangle=-45, headlabel="False"] ;
35 [label=<frontal acc &le; -0.747<br/>gini = 0.428<br/>samples = 17697<br/>value = [12746, 3979, 23, 949]<br/>class = l>, fillcolor="#eeae80"] ;
34 -> 35 ;
36 [label=<RSSI &le; 0.668<br/>gini = 0.305<br/>samples = 12507<br/>value = [10302, 1350, 2, 853]<br/>class = l>, fillcolor="#ea9a60"] ;
35 -> 36 ;
37 [label=<vertical acc &le; 1.458<br/>gini = 0.274<br/>samples = 12048<br/>value = [10182, 1062, 1, 803]<br/>class = l>, fillcolor="#e9965b"] ;
36 -> 37 ;
38 [label=<lateral acc &le; -0.862<br/>gini = 0.254<br/>samples = 11771<br/>value = [10097, 1014, 1, 659]<br/>class = l>, fillcolor="#e99558"] ;
37 -> 38 ;
39 [label=<RSSI &le; -0.606<br/>gini = 0.643<br/>samples = 134<br/>value = [26, 53, 1, 54]<br/>class = e>, fillcolor="#fffdff"] ;
38 -> 39 ;
40 [label=<frontal acc &le; -1.144<br/>gini = 0.239<br/>samples = 36<br/>value = [5, 0, 0, 31]<br/>class = e>, fillcolor="#dd59e9"] ;
39 -> 40 ;
41 [label=<vertical acc &le; 0.62<br/>gini = 0.114<br/>samples = 33<br/>value = [2, 0, 0, 31]<br/>class = e>, fillcolor="#da46e7"] ;
40 -> 41 ;
42 [label=<gini = 0.0<br/>samples = 2<br/>value = [2, 0, 0, 0]<br/>class = l>, fillcolor="#e58139"] ;
41 -> 42 ;
43 [label=<gini = 0.0<br/>samples = 31<br/>value = [0, 0, 0, 31]<br/>class = e>, fillcolor="#d739e5"] ;
41 -> 43 ;
44 [label=<gini = 0.0<br/>samples = 3<br/>value = [3, 0, 0, 0]<br/>class = l>, fillcolor="#e58139"] ;
40 -> 44 ;
45 [label=<frontal acc &le; -1.614<br/>gini = 0.606<br/>samples = 98<br/>value = [21, 53, 1, 23]<br/>class = a>, fillcolor="#b5f5b0"] ;
39 -> 45 ;
46 [label=<frontal acc &le; -2.04<br/>gini = 0.635<br/>samples = 29<br/>value = [11, 4, 1, 13]<br/>class = e>, fillcolor="#fbe9fc"] ;
45 -> 46 ;
47 [label=<vertical acc &le; 1.347<br/>gini = 0.615<br/>samples = 20<br/>value = [11, 4, 1, 4]<br/>class = l>, fillcolor="#f4c8a8"] ;
46 -> 47 ;
48 [label=<phase &le; 0.308<br/>gini = 0.519<br/>samples = 17<br/>value = [11, 4, 1, 1]<br/>class = l>, fillcolor="#f1bb94"] ;
47 -> 48 ;
49 [label=<RSSI &le; -0.288<br/>gini = 0.314<br/>samples = 11<br/>value = [9, 1, 1, 0]<br/>class = l>, fillcolor="#ea9a61"] ;
48 -> 49 ;
50 [label=<gini = 0.0<br/>samples = 1<br/>value = [0, 1, 0, 0]<br/>class = a>, fillcolor="#47e539"] ;
49 -> 50 ;
51 [label=<RSSI &le; 0.35<br/>gini = 0.18<br/>samples = 10<br/>value = [9, 0, 1, 0]<br/>class = l>, fillcolor="#e88f4f"] ;
49 -> 51 ;
52 [label=<gini = 0.0<br/>samples = 8<br/>value = [8, 0, 0, 0]<br/>class = l>, fillcolor="#e58139"] ;
51 -> 52 ;
53 [label=<frequency &le; -0.015<br/>gini = 0.5<br/>samples = 2<br/>value = [1, 0, 1, 0]<br/>class = l>, fillcolor="#ffffff"] ;
51 -> 53 ;
54 [label=<gini = 0.0<br/>samples = 1<br/>value = [1, 0, 0, 0]<br/>class = l>, fillcolor="#e58139"] ;
53 -> 54 ;
55 [label=<gini = 0.0<br/>samples = 1<br/>value = [0, 0, 1, 0]<br/>class = b>, fillcolor="#399de5"] ;
53 -> 55 ;
56 [label=<phase &le; 0.581<br/>gini = 0.611<br/>samples = 6<br/>value = [2, 3, 0, 1]<br/>class = a>, fillcolor="#d1f8ce"] ;
48 -> 56 ;
57 [label=<gini = 0.0<br/>samples = 1<br/>value = [0, 0, 0, 1]<br/>class = e>, fillcolor="#d739e5"] ;
56 -> 57 ;
58 [label=<RSSI &le; -0.235<br/>gini = 0.48<br/>samples = 5<br/>value = [2, 3, 0, 0]<br/>class = a>, fillcolor="#c2f6bd"] ;
56 -> 58 ;
59 [label=<gini = 0.0<br/>samples = 1<br/>value = [1, 0, 0, 0]<br/>class = l>, fillcolor="#e58139"] ;
58 -> 59 ;
60 [label=<lateral acc &le; -1.09<br/>gini = 0.375<br/>samples = 4<br/>value = [1, 3, 0, 0]<br/>class = a>, fillcolor="#84ee7b"] ;
58 -> 60 ;
61 [label=<gini = 0.0<br/>samples = 3<br/>value = [0, 3, 0, 0]<br/>class = a>, fillcolor="#47e539"] ;
60 -> 61 ;
62 [label=<gini = 0.0<br/>samples = 1<br/>value = [1, 0, 0, 0]<br/>class = l>, fillcolor="#e58139"] ;
60 -> 62 ;
63 [label=<gini = 0.0<br/>samples = 3<br/>value = [0, 0, 0, 3]<br/>class = e>, fillcolor="#d739e5"] ;
47 -> 63 ;
64 [label=<gini = 0.0<br/>samples = 9<br/>value = [0, 0, 0, 9]<br/>class = e>, fillcolor="#d739e5"] ;
46 -> 64 ;
65 [label=<RSSI &le; 0.456<br/>gini = 0.454<br/>samples = 69<br/>value = [10, 49, 0, 10]<br/>class = a>, fillcolor="#85ee7c"] ;
45 -> 65 ;
66 [label=<frontal acc &le; -0.953<br/>gini = 0.606<br/>samples = 43<br/>value = [10, 23, 0, 10]<br/>class = a>, fillcolor="#b7f5b1"] ;
65 -> 66 ;
67 [label=<frequency &le; -0.162<br/>gini = 0.663<br/>samples = 28<br/>value = [10, 8, 0, 10]<br/>class = l>, fillcolor="#ffffff"] ;
66 -> 67 ;
68 [label=<frontal acc &le; -1.217<br/>gini = 0.555<br/>samples = 16<br/>value = [7, 8, 0, 1]<br/>class = a>, fillcolor="#ebfce9"] ;
67 -> 68 ;
69 [label=<RSSI &le; -0.181<br/>gini = 0.34<br/>samples = 10<br/>value = [1, 8, 0, 1]<br/>class = a>, fillcolor="#70eb65"] ;
68 -> 69 ;
70 [label=<vertical acc &le; 1.384<br/>gini = 0.5<br/>samples = 2<br/>value = [1, 0, 0, 1]<br/>class = l>, fillcolor="#ffffff"] ;
69 -> 70 ;
71 [label=<gini = 0.0<br/>samples = 1<br/>value = [1, 0, 0, 0]<br/>class = l>, fillcolor="#e58139"] ;
70 -> 71 ;
72 [label=<gini = 0.0<br/>samples = 1<br/>value = [0, 0, 0, 1]<br/>class = e>, fillcolor="#d739e5"] ;
70 -> 72 ;
73 [label=<gini = 0.0<br/>samples = 8<br/>value = [0, 8, 0, 0]<br/>class = a>, fillcolor="#47e539"] ;
69 -> 73 ;
74 [label=<gini = 0.0<br/>samples = 6<br/>value = [6, 0, 0, 0]<br/>class = l>, fillcolor="#e58139"] ;
68 -> 74 ;
75 [label=<RSSI &le; 0.031<br/>gini = 0.375<br/>samples = 12<br/>value = [3, 0, 0, 9]<br/>class = e>, fillcolor="#e47bee"] ;
67 -> 75 ;
76 [label=<gini = 0.0<br/>samples = 2<br/>value = [2, 0, 0, 0]<br/>class = l>, fillcolor="#e58139"] ;
75 -> 76 ;
77 [label=<vertical acc &le; 1.31<br/>gini = 0.18<br/>samples = 10<br/>value = [1, 0, 0, 9]<br/>class = e>, fillcolor="#db4fe8"] ;
75 -> 77 ;
78 [label=<gini = 0.0<br/>samples = 9<br/>value = [0, 0, 0, 9]<br/>class = e>, fillcolor="#d739e5"] ;
77 -> 78 ;
79 [label=<gini = 0.0<br/>samples = 1<br/>value = [1, 0, 0, 0]<br/>class = l>, fillcolor="#e58139"] ;
77 -> 79 ;
80 [label=<gini = 0.0<br/>samples = 15<br/>value = [0, 15, 0, 0]<br/>class = a>, fillcolor="#47e539"] ;
66 -> 80 ;
81 [label=<gini = 0.0<br/>samples = 26<br/>value = [0, 26, 0, 0]<br/>class = a>, fillcolor="#47e539"] ;
65 -> 81 ;
82 [label=<RSSI &le; 0.031<br/>gini = 0.242<br/>samples = 11637<br/>value = [10071, 961, 0, 605]<br/>class = l>, fillcolor="#e99356"] ;
38 -> 82 ;
83 [label=<vertical acc &le; 1.088<br/>gini = 0.159<br/>samples = 5612<br/>value = [5133, 104, 0, 375]<br/>class = l>, fillcolor="#e78d4b"] ;
82 -> 83 ;
84 [label=<frontal acc &le; -1.394<br/>gini = 0.489<br/>samples = 208<br/>value = [124, 2, 0, 82]<br/>class = l>, fillcolor="#f6d5bd"] ;
83 -> 84 ;
85 [label=<frequency &le; 0.723<br/>gini = 0.493<br/>samples = 94<br/>value = [35, 2, 0, 57]<br/>class = e>, fillcolor="#f0b5f5"] ;
84 -> 85 ;
86 [label=<vertical acc &le; 1.039<br/>gini = 0.49<br/>samples = 42<br/>value = [24, 0, 0, 18]<br/>class = l>, fillcolor="#f8e0ce"] ;
85 -> 86 ;
87 [label=<frontal acc &le; -2.642<br/>gini = 0.487<br/>samples = 31<br/>value = [13, 0, 0, 18]<br/>class = e>, fillcolor="#f4c8f8"] ;
86 -> 87 ;
88 [label=<gini = 0.0<br/>samples = 5<br/>value = [5, 0, 0, 0]<br/>class = l>, fillcolor="#e58139"] ;
87 -> 88 ;
89 [label=<frequency &le; -0.752<br/>gini = 0.426<br/>samples = 26<br/>value = [8, 0, 0, 18]<br/>class = e>, fillcolor="#e991f1"] ;
87 -> 89 ;
90 [label=<gini = 0.0<br/>samples = 10<br/>value = [0, 0, 0, 10]<br/>class = e>, fillcolor="#d739e5"] ;
89 -> 90 ;
91 [label=<lateral acc &le; 0.081<br/>gini = 0.5<br/>samples = 16<br/>value = [8, 0, 0, 8]<br/>class = l>, fillcolor="#ffffff"] ;
89 -> 91 ;
92 [label=<gini = 0.0<br/>samples = 4<br/>value = [0, 0, 0, 4]<br/>class = e>, fillcolor="#d739e5"] ;
91 -> 92 ;
93 [label=<RSSI &le; -0.766<br/>gini = 0.444<br/>samples = 12<br/>value = [8, 0, 0, 4]<br/>class = l>, fillcolor="#f2c09c"] ;
91 -> 93 ;
94 [label=<gini = 0.0<br/>samples = 3<br/>value = [3, 0, 0, 0]<br/>class = l>, fillcolor="#e58139"] ;
93 -> 94 ;
95 [label=<RSSI &le; -0.5<br/>gini = 0.494<br/>samples = 9<br/>value = [5, 0, 0, 4]<br/>class = l>, fillcolor="#fae6d7"] ;
93 -> 95 ;
96 [label=<gini = 0.0<br/>samples = 2<br/>value = [0, 0, 0, 2]<br/>class = e>, fillcolor="#d739e5"] ;
95 -> 96 ;
97 [label=<lateral acc &le; 2.196<br/>gini = 0.408<br/>samples = 7<br/>value = [5, 0, 0, 2]<br/>class = l>, fillcolor="#efb388"] ;
95 -> 97 ;
98 [label=<gini = 0.0<br/>samples = 4<br/>value = [4, 0, 0, 0]<br/>class = l>, fillcolor="#e58139"] ;
97 -> 98 ;
99 [label=<RSSI &le; -0.394<br/>gini = 0.444<br/>samples = 3<br/>value = [1, 0, 0, 2]<br/>class = e>, fillcolor="#eb9cf2"] ;
97 -> 99 ;
100 [label=<gini = 0.0<br/>samples = 1<br/>value = [1, 0, 0, 0]<br/>class = l>, fillcolor="#e58139"] ;
99 -> 100 ;
101 [label=<gini = 0.0<br/>samples = 2<br/>value = [0, 0, 0, 2]<br/>class = e>, fillcolor="#d739e5"] ;
99 -> 101 ;
102 [label=<gini = 0.0<br/>samples = 11<br/>value = [11, 0, 0, 0]<br/>class = l>, fillcolor="#e58139"] ;
86 -> 102 ;
103 [label=<lateral acc &le; 0.667<br/>gini = 0.391<br/>samples = 52<br/>value = [11, 2, 0, 39]<br/>class = e>, fillcolor="#e478ed"] ;
85 -> 103 ;
104 [label=<frontal acc &le; -2.437<br/>gini = 0.123<br/>samples = 31<br/>value = [1, 1, 0, 29]<br/>class = e>, fillcolor="#da46e7"] ;
103 -> 104 ;
105 [label=<frontal acc &le; -3.112<br/>gini = 0.5<br/>samples = 2<br/>value = [1, 1, 0, 0]<br/>class = l>, fillcolor="#ffffff"] ;
104 -> 105 ;
106 [label=<gini = 0.0<br/>samples = 1<br/>value = [0, 1, 0, 0]<br/>class = a>, fillcolor="#47e539"] ;
105 -> 106 ;
107 [label=<gini = 0.0<br/>samples = 1<br/>value = [1, 0, 0, 0]<br/>class = l>, fillcolor="#e58139"] ;
105 -> 107 ;
108 [label=<gini = 0.0<br/>samples = 29<br/>value = [0, 0, 0, 29]<br/>class = e>, fillcolor="#d739e5"] ;
104 -> 108 ;
109 [label=<frontal acc &le; -1.82<br/>gini = 0.544<br/>samples = 21<br/>value = [10, 1, 0, 10]<br/>class = l>, fillcolor="#ffffff"] ;
103 -> 109 ;
110 [label=<phase &le; 1.208<br/>gini = 0.48<br/>samples = 15<br/>value = [10, 1, 0, 4]<br/>class = l>, fillcolor="#f1ba93"] ;
109 -> 110 ;
111 [label=<vertical acc &le; 0.867<br/>gini = 0.355<br/>samples = 13<br/>value = [10, 0, 0, 3]<br/>class = l>, fillcolor="#eda774"] ;
110 -> 111 ;
112 [label=<vertical acc &le; 0.694<br/>gini = 0.5<br/>samples = 6<br/>value = [3, 0, 0, 3]<br/>class = l>, fillcolor="#ffffff"] ;
111 -> 112 ;
113 [label=<gini = 0.0<br/>samples = 3<br/>value = [3, 0, 0, 0]<br/>class = l>, fillcolor="#e58139"] ;
112 -> 113 ;
114 [label=<gini = 0.0<br/>samples = 3<br/>value = [0, 0, 0, 3]<br/>class = e>, fillcolor="#d739e5"] ;
112 -> 114 ;
115 [label=<gini = 0.0<br/>samples = 7<br/>value = [7, 0, 0, 0]<br/>class = l>, fillcolor="#e58139"] ;
111 -> 115 ;
116 [label=<phase &le; 1.252<br/>gini = 0.5<br/>samples = 2<br/>value = [0, 1, 0, 1]<br/>class = a>, fillcolor="#ffffff"] ;
110 -> 116 ;
117 [label=<gini = 0.0<br/>samples = 1<br/>value = [0, 0, 0, 1]<br/>class = e>, fillcolor="#d739e5"] ;
116 -> 117 ;
118 [label=<gini = 0.0<br/>samples = 1<br/>value = [0, 1, 0, 0]<br/>class = a>, fillcolor="#47e539"] ;
116 -> 118 ;
119 [label=<gini = 0.0<br/>samples = 6<br/>value = [0, 0, 0, 6]<br/>class = e>, fillcolor="#d739e5"] ;
109 -> 119 ;
120 [label=<RSSI &le; -0.288<br/>gini = 0.342<br/>samples = 114<br/>value = [89, 0, 0, 25]<br/>class = l>, fillcolor="#eca471"] ;
84 -> 120 ;
121 [label=<lateral acc &le; 0.699<br/>gini = 0.467<br/>samples = 62<br/>value = [39, 0, 0, 23]<br/>class = l>, fillcolor="#f4cbae"] ;
120 -> 121 ;
122 [label=<frequency &le; -0.752<br/>gini = 0.278<br/>samples = 12<br/>value = [2, 0, 0, 10]<br/>class = e>, fillcolor="#df61ea"] ;
121 -> 122 ;
123 [label=<gini = 0.0<br/>samples = 2<br/>value = [2, 0, 0, 0]<br/>class = l>, fillcolor="#e58139"] ;
122 -> 123 ;
124 [label=<gini = 0.0<br/>samples = 10<br/>value = [0, 0, 0, 10]<br/>class = e>, fillcolor="#d739e5"] ;
122 -> 124 ;
125 [label=<phase &le; -1.382<br/>gini = 0.385<br/>samples = 50<br/>value = [37, 0, 0, 13]<br/>class = l>, fillcolor="#eead7f"] ;
121 -> 125 ;
126 [label=<RSSI &le; -1.35<br/>gini = 0.245<br/>samples = 7<br/>value = [1, 0, 0, 6]<br/>class = e>, fillcolor="#de5ae9"] ;
125 -> 126 ;
127 [label=<gini = 0.0<br/>samples = 6<br/>value = [0, 0, 0, 6]<br/>class = e>, fillcolor="#d739e5"] ;
126 -> 127 ;
128 [label=<gini = 0.0<br/>samples = 1<br/>value = [1, 0, 0, 0]<br/>class = l>, fillcolor="#e58139"] ;
126 -> 128 ;
129 [label=<frequency &le; -1.343<br/>gini = 0.273<br/>samples = 43<br/>value = [36, 0, 0, 7]<br/>class = l>, fillcolor="#ea9a5f"] ;
125 -> 129 ;
130 [label=<phase &le; -0.841<br/>gini = 0.245<br/>samples = 7<br/>value = [1, 0, 0, 6]<br/>class = e>, fillcolor="#de5ae9"] ;
129 -> 130 ;
131 [label=<gini = 0.0<br/>samples = 1<br/>value = [1, 0, 0, 0]<br/>class = l>, fillcolor="#e58139"] ;
130 -> 131 ;
132 [label=<gini = 0.0<br/>samples = 6<br/>value = [0, 0, 0, 6]<br/>class = e>, fillcolor="#d739e5"] ;
130 -> 132 ;
133 [label=<lateral acc &le; 3.757<br/>gini = 0.054<br/>samples = 36<br/>value = [35, 0, 0, 1]<br/>class = l>, fillcolor="#e6853f"] ;
129 -> 133 ;
134 [label=<gini = 0.0<br/>samples = 35<br/>value = [35, 0, 0, 0]<br/>class = l>, fillcolor="#e58139"] ;
133 -> 134 ;
135 [label=<gini = 0.0<br/>samples = 1<br/>value = [0, 0, 0, 1]<br/>class = e>, fillcolor="#d739e5"] ;
133 -> 135 ;
136 [label=<lateral acc &le; 0.114<br/>gini = 0.074<br/>samples = 52<br/>value = [50, 0, 0, 2]<br/>class = l>, fillcolor="#e68641"] ;
120 -> 136 ;
137 [label=<gini = 0.0<br/>samples = 2<br/>value = [0, 0, 0, 2]<br/>class = e>, fillcolor="#d739e5"] ;
136 -> 137 ;
138 [label=<gini = 0.0<br/>samples = 50<br/>value = [50, 0, 0, 0]<br/>class = l>, fillcolor="#e58139"] ;
136 -> 138 ;
139 [label=<RSSI &le; -1.244<br/>gini = 0.138<br/>samples = 5404<br/>value = [5009, 102, 0, 293]<br/>class = l>, fillcolor="#e78b48"] ;
83 -> 139 ;
140 [label=<frontal acc &le; -1.629<br/>gini = 0.348<br/>samples = 676<br/>value = [529, 13, 0, 134]<br/>class = l>, fillcolor="#eca36f"] ;
139 -> 140 ;
141 [label=<lateral acc &le; 0.244<br/>gini = 0.511<br/>samples = 87<br/>value = [44, 1, 0, 42]<br/>class = l>, fillcolor="#fef9f6"] ;
140 -> 141 ;
142 [label=<frontal acc &le; -1.717<br/>gini = 0.305<br/>samples = 32<br/>value = [26, 0, 0, 6]<br/>class = l>, fillcolor="#eb9e67"] ;
141 -> 142 ;
143 [label=<vertical acc &le; 1.224<br/>gini = 0.231<br/>samples = 30<br/>value = [26, 0, 0, 4]<br/>class = l>, fillcolor="#e99457"] ;
142 -> 143 ;
144 [label=<vertical acc &le; 1.15<br/>gini = 0.5<br/>samples = 6<br/>value = [3, 0, 0, 3]<br/>class = l>, fillcolor="#ffffff"] ;
143 -> 144 ;
145 [label=<gini = 0.0<br/>samples = 3<br/>value = [3, 0, 0, 0]<br/>class = l>, fillcolor="#e58139"] ;
144 -> 145 ;
146 [label=<gini = 0.0<br/>samples = 3<br/>value = [0, 0, 0, 3]<br/>class = e>, fillcolor="#d739e5"] ;
144 -> 146 ;
147 [label=<RSSI &le; -2.04<br/>gini = 0.08<br/>samples = 24<br/>value = [23, 0, 0, 1]<br/>class = l>, fillcolor="#e68642"] ;
143 -> 147 ;
148 [label=<gini = 0.0<br/>samples = 1<br/>value = [0, 0, 0, 1]<br/>class = e>, fillcolor="#d739e5"] ;
147 -> 148 ;
149 [label=<gini = 0.0<br/>samples = 23<br/>value = [23, 0, 0, 0]<br/>class = l>, fillcolor="#e58139"] ;
147 -> 149 ;
150 [label=<gini = 0.0<br/>samples = 2<br/>value = [0, 0, 0, 2]<br/>class = e>, fillcolor="#d739e5"] ;
142 -> 150 ;
151 [label=<phase &le; -0.787<br/>gini = 0.464<br/>samples = 55<br/>value = [18, 1, 0, 36]<br/>class = e>, fillcolor="#ec9ff2"] ;
141 -> 151 ;
152 [label=<frequency &le; 1.608<br/>gini = 0.153<br/>samples = 12<br/>value = [11, 1, 0, 0]<br/>class = l>, fillcolor="#e78c4b"] ;
151 -> 152 ;
153 [label=<gini = 0.0<br/>samples = 11<br/>value = [11, 0, 0, 0]<br/>class = l>, fillcolor="#e58139"] ;
152 -> 153 ;
154 [label=<gini = 0.0<br/>samples = 1<br/>value = [0, 1, 0, 0]<br/>class = a>, fillcolor="#47e539"] ;
152 -> 154 ;
155 [label=<frequency &le; -0.605<br/>gini = 0.273<br/>samples = 43<br/>value = [7, 0, 0, 36]<br/>class = e>, fillcolor="#df5fea"] ;
151 -> 155 ;
156 [label=<lateral acc &le; 0.374<br/>gini = 0.32<br/>samples = 5<br/>value = [4, 0, 0, 1]<br/>class = l>, fillcolor="#eca06a"] ;
155 -> 156 ;
157 [label=<gini = 0.0<br/>samples = 1<br/>value = [0, 0, 0, 1]<br/>class = e>, fillcolor="#d739e5"] ;
156 -> 157 ;
158 [label=<gini = 0.0<br/>samples = 4<br/>value = [4, 0, 0, 0]<br/>class = l>, fillcolor="#e58139"] ;
156 -> 158 ;
159 [label=<phase &le; -0.595<br/>gini = 0.145<br/>samples = 38<br/>value = [3, 0, 0, 35]<br/>class = e>, fillcolor="#da4ae7"] ;
155 -> 159 ;
160 [label=<gini = 0.0<br/>samples = 1<br/>value = [1, 0, 0, 0]<br/>class = l>, fillcolor="#e58139"] ;
159 -> 160 ;
161 [label=<lateral acc &le; 0.96<br/>gini = 0.102<br/>samples = 37<br/>value = [2, 0, 0, 35]<br/>class = e>, fillcolor="#d944e6"] ;
159 -> 161 ;
162 [label=<frontal acc &le; -1.717<br/>gini = 0.054<br/>samples = 36<br/>value = [1, 0, 0, 35]<br/>class = e>, fillcolor="#d83fe6"] ;
161 -> 162 ;
163 [label=<gini = 0.0<br/>samples = 32<br/>value = [0, 0, 0, 32]<br/>class = e>, fillcolor="#d739e5"] ;
162 -> 163 ;
164 [label=<phase &le; 0.768<br/>gini = 0.375<br/>samples = 4<br/>value = [1, 0, 0, 3]<br/>class = e>, fillcolor="#e47bee"] ;
162 -> 164 ;
165 [label=<gini = 0.0<br/>samples = 2<br/>value = [0, 0, 0, 2]<br/>class = e>, fillcolor="#d739e5"] ;
164 -> 165 ;
166 [label=<phase &le; 1.075<br/>gini = 0.5<br/>samples = 2<br/>value = [1, 0, 0, 1]<br/>class = l>, fillcolor="#ffffff"] ;
164 -> 166 ;
167 [label=<gini = 0.0<br/>samples = 1<br/>value = [1, 0, 0, 0]<br/>class = l>, fillcolor="#e58139"] ;
166 -> 167 ;
168 [label=<gini = 0.0<br/>samples = 1<br/>value = [0, 0, 0, 1]<br/>class = e>, fillcolor="#d739e5"] ;
166 -> 168 ;
169 [label=<gini = 0.0<br/>samples = 1<br/>value = [1, 0, 0, 0]<br/>class = l>, fillcolor="#e58139"] ;
161 -> 169 ;
170 [label=<lateral acc &le; -0.472<br/>gini = 0.297<br/>samples = 589<br/>value = [485, 12, 0, 92]<br/>class = l>, fillcolor="#ea9b62"] ;
140 -> 170 ;
171 [label=<RSSI &le; -1.669<br/>gini = 0.478<br/>samples = 38<br/>value = [15, 0, 0, 23]<br/>class = e>, fillcolor="#f1baf6"] ;
170 -> 171 ;
172 [label=<frontal acc &le; -1.452<br/>gini = 0.095<br/>samples = 20<br/>value = [1, 0, 0, 19]<br/>class = e>, fillcolor="#d943e6"] ;
171 -> 172 ;
173 [label=<gini = 0.0<br/>samples = 18<br/>value = [0, 0, 0, 18]<br/>class = e>, fillcolor="#d739e5"] ;
172 -> 173 ;
174 [label=<lateral acc &le; -0.699<br/>gini = 0.5<br/>samples = 2<br/>value = [1, 0, 0, 1]<br/>class = l>, fillcolor="#ffffff"] ;
172 -> 174 ;
175 [label=<gini = 0.0<br/>samples = 1<br/>value = [1, 0, 0, 0]<br/>class = l>, fillcolor="#e58139"] ;
174 -> 175 ;
176 [label=<gini = 0.0<br/>samples = 1<br/>value = [0, 0, 0, 1]<br/>class = e>, fillcolor="#d739e5"] ;
174 -> 176 ;
177 [label=<frontal acc &le; -1.394<br/>gini = 0.346<br/>samples = 18<br/>value = [14, 0, 0, 4]<br/>class = l>, fillcolor="#eca572"] ;
171 -> 177 ;
178 [label=<gini = 0.0<br/>samples = 11<br/>value = [11, 0, 0, 0]<br/>class = l>, fillcolor="#e58139"] ;
177 -> 178 ;
179 [label=<frontal acc &le; -0.938<br/>gini = 0.49<br/>samples = 7<br/>value = [3, 0, 0, 4]<br/>class = e>, fillcolor="#f5cef8"] ;
177 -> 179 ;
180 [label=<lateral acc &le; -0.537<br/>gini = 0.32<br/>samples = 5<br/>value = [1, 0, 0, 4]<br/>class = e>, fillcolor="#e16aec"] ;
179 -> 180 ;
181 [label=<gini = 0.0<br/>samples = 4<br/>value = [0, 0, 0, 4]<br/>class = e>, fillcolor="#d739e5"] ;
180 -> 181 ;
182 [label=<gini = 0.0<br/>samples = 1<br/>value = [1, 0, 0, 0]<br/>class = l>, fillcolor="#e58139"] ;
180 -> 182 ;
183 [label=<gini = 0.0<br/>samples = 2<br/>value = [2, 0, 0, 0]<br/>class = l>, fillcolor="#e58139"] ;
179 -> 183 ;
184 [label=<frontal acc &le; -1.07<br/>gini = 0.256<br/>samples = 551<br/>value = [470, 12, 0, 69]<br/>class = l>, fillcolor="#e9965a"] ;
170 -> 184 ;
185 [label=<lateral acc &le; -0.211<br/>gini = 0.112<br/>samples = 368<br/>value = [346, 0, 0, 22]<br/>class = l>, fillcolor="#e78946"] ;
184 -> 185 ;
186 [label=<frontal acc &le; -1.129<br/>gini = 0.436<br/>samples = 28<br/>value = [19, 0, 0, 9]<br/>class = l>, fillcolor="#f1bd97"] ;
185 -> 186 ;
187 [label=<lateral acc &le; -0.309<br/>gini = 0.236<br/>samples = 22<br/>value = [19, 0, 0, 3]<br/>class = l>, fillcolor="#e99558"] ;
186 -> 187 ;
188 [label=<frequency &le; -0.015<br/>gini = 0.095<br/>samples = 20<br/>value = [19, 0, 0, 1]<br/>class = l>, fillcolor="#e68843"] ;
187 -> 188 ;
189 [label=<gini = 0.0<br/>samples = 1<br/>value = [0, 0, 0, 1]<br/>class = e>, fillcolor="#d739e5"] ;
188 -> 189 ;
190 [label=<gini = 0.0<br/>samples = 19<br/>value = [19, 0, 0, 0]<br/>class = l>, fillcolor="#e58139"] ;
188 -> 190 ;
191 [label=<gini = 0.0<br/>samples = 2<br/>value = [0, 0, 0, 2]<br/>class = e>, fillcolor="#d739e5"] ;
187 -> 191 ;
192 [label=<gini = 0.0<br/>samples = 6<br/>value = [0, 0, 0, 6]<br/>class = e>, fillcolor="#d739e5"] ;
186 -> 192 ;
193 [label=<phase &le; 1.253<br/>gini = 0.074<br/>samples = 340<br/>value = [327, 0, 0, 13]<br/>class = l>, fillcolor="#e68641"] ;
185 -> 193 ;
194 [label=<vertical acc &le; 1.187<br/>gini = 0.038<br/>samples = 312<br/>value = [306, 0, 0, 6]<br/>class = l>, fillcolor="#e6833d"] ;
193 -> 194 ;
195 [label=<vertical acc &le; 1.162<br/>gini = 0.346<br/>samples = 9<br/>value = [7, 0, 0, 2]<br/>class = l>, fillcolor="#eca572"] ;
194 -> 195 ;
196 [label=<gini = 0.0<br/>samples = 6<br/>value = [6, 0, 0, 0]<br/>class = l>, fillcolor="#e58139"] ;
195 -> 196 ;
197 [label=<RSSI &le; -1.934<br/>gini = 0.444<br/>samples = 3<br/>value = [1, 0, 0, 2]<br/>class = e>, fillcolor="#eb9cf2"] ;
195 -> 197 ;
198 [label=<gini = 0.0<br/>samples = 1<br/>value = [1, 0, 0, 0]<br/>class = l>, fillcolor="#e58139"] ;
197 -> 198 ;
199 [label=<gini = 0.0<br/>samples = 2<br/>value = [0, 0, 0, 2]<br/>class = e>, fillcolor="#d739e5"] ;
197 -> 199 ;
200 [label=<lateral acc &le; 0.244<br/>gini = 0.026<br/>samples = 303<br/>value = [299, 0, 0, 4]<br/>class = l>, fillcolor="#e5833c"] ;
194 -> 200 ;
201 [label=<vertical acc &le; 1.261<br/>gini = 0.087<br/>samples = 88<br/>value = [84, 0, 0, 4]<br/>class = l>, fillcolor="#e68742"] ;
200 -> 201 ;
202 [label=<gini = 0.0<br/>samples = 1<br/>value = [0, 0, 0, 1]<br/>class = e>, fillcolor="#d739e5"] ;
201 -> 202 ;
203 [label=<frequency &le; 1.461<br/>gini = 0.067<br/>samples = 87<br/>value = [84, 0, 0, 3]<br/>class = l>, fillcolor="#e68640"] ;
201 -> 203 ;
204 [label=<frequency &le; -1.343<br/>gini = 0.046<br/>samples = 84<br/>value = [82, 0, 0, 2]<br/>class = l>, fillcolor="#e6843e"] ;
203 -> 204 ;
205 [label=<frontal acc &le; -1.261<br/>gini = 0.278<br/>samples = 6<br/>value = [5, 0, 0, 1]<br/>class = l>, fillcolor="#ea9a61"] ;
204 -> 205 ;
206 [label=<gini = 0.0<br/>samples = 5<br/>value = [5, 0, 0, 0]<br/>class = l>, fillcolor="#e58139"] ;
205 -> 206 ;
207 [label=<gini = 0.0<br/>samples = 1<br/>value = [0, 0, 0, 1]<br/>class = e>, fillcolor="#d739e5"] ;
205 -> 207 ;
208 [label=<RSSI &le; -1.35<br/>gini = 0.025<br/>samples = 78<br/>value = [77, 0, 0, 1]<br/>class = l>, fillcolor="#e5833c"] ;
204 -> 208 ;
209 [label=<gini = 0.0<br/>samples = 65<br/>value = [65, 0, 0, 0]<br/>class = l>, fillcolor="#e58139"] ;
208 -> 209 ;
210 [label=<frequency &le; -0.752<br/>gini = 0.142<br/>samples = 13<br/>value = [12, 0, 0, 1]<br/>class = l>, fillcolor="#e78c49"] ;
208 -> 210 ;
211 [label=<gini = 0.0<br/>samples = 12<br/>value = [12, 0, 0, 0]<br/>class = l>, fillcolor="#e58139"] ;
210 -> 211 ;
212 [label=<gini = 0.0<br/>samples = 1<br/>value = [0, 0, 0, 1]<br/>class = e>, fillcolor="#d739e5"] ;
210 -> 212 ;
213 [label=<vertical acc &le; 1.347<br/>gini = 0.444<br/>samples = 3<br/>value = [2, 0, 0, 1]<br/>class = l>, fillcolor="#f2c09c"] ;
203 -> 213 ;
214 [label=<gini = 0.0<br/>samples = 1<br/>value = [0, 0, 0, 1]<br/>class = e>, fillcolor="#d739e5"] ;
213 -> 214 ;
215 [label=<gini = 0.0<br/>samples = 2<br/>value = [2, 0, 0, 0]<br/>class = l>, fillcolor="#e58139"] ;
213 -> 215 ;
216 [label=<gini = 0.0<br/>samples = 215<br/>value = [215, 0, 0, 0]<br/>class = l>, fillcolor="#e58139"] ;
200 -> 216 ;
217 [label=<phase &le; 1.256<br/>gini = 0.375<br/>samples = 28<br/>value = [21, 0, 0, 7]<br/>class = l>, fillcolor="#eeab7b"] ;
193 -> 217 ;
218 [label=<gini = 0.0<br/>samples = 6<br/>value = [0, 0, 0, 6]<br/>class = e>, fillcolor="#d739e5"] ;
217 -> 218 ;
219 [label=<phase &le; 1.334<br/>gini = 0.087<br/>samples = 22<br/>value = [21, 0, 0, 1]<br/>class = l>, fillcolor="#e68742"] ;
217 -> 219 ;
220 [label=<gini = 0.0<br/>samples = 21<br/>value = [21, 0, 0, 0]<br/>class = l>, fillcolor="#e58139"] ;
219 -> 220 ;
221 [label=<gini = 0.0<br/>samples = 1<br/>value = [0, 0, 0, 1]<br/>class = e>, fillcolor="#d739e5"] ;
219 -> 221 ;
222 [label=<lateral acc &le; -0.016<br/>gini = 0.471<br/>samples = 183<br/>value = [124, 12, 0, 47]<br/>class = l>, fillcolor="#f0b88f"] ;
184 -> 222 ;
223 [label=<RSSI &le; -1.562<br/>gini = 0.093<br/>samples = 41<br/>value = [39, 0, 0, 2]<br/>class = l>, fillcolor="#e68743"] ;
222 -> 223 ;
224 [label=<gini = 0.0<br/>samples = 36<br/>value = [36, 0, 0, 0]<br/>class = l>, fillcolor="#e58139"] ;
223 -> 224 ;
225 [label=<frequency &le; 0.28<br/>gini = 0.48<br/>samples = 5<br/>value = [3, 0, 0, 2]<br/>class = l>, fillcolor="#f6d5bd"] ;
223 -> 225 ;
226 [label=<gini = 0.0<br/>samples = 2<br/>value = [0, 0, 0, 2]<br/>class = e>, fillcolor="#d739e5"] ;
225 -> 226 ;
227 [label=<gini = 0.0<br/>samples = 3<br/>value = [3, 0, 0, 0]<br/>class = l>, fillcolor="#e58139"] ;
225 -> 227 ;
228 [label=<lateral acc &le; 0.309<br/>gini = 0.534<br/>samples = 142<br/>value = [85, 12, 0, 45]<br/>class = l>, fillcolor="#f4cbad"] ;
222 -> 228 ;
229 [label=<phase &le; 1.21<br/>gini = 0.607<br/>samples = 35<br/>value = [11, 6, 0, 18]<br/>class = e>, fillcolor="#f3c5f7"] ;
228 -> 229 ;
230 [label=<vertical acc &le; 1.137<br/>gini = 0.471<br/>samples = 29<br/>value = [11, 0, 0, 18]<br/>class = e>, fillcolor="#efb2f5"] ;
229 -> 230 ;
231 [label=<gini = 0.0<br/>samples = 12<br/>value = [0, 0, 0, 12]<br/>class = e>, fillcolor="#d739e5"] ;
230 -> 231 ;
232 [label=<frontal acc &le; -1.041<br/>gini = 0.457<br/>samples = 17<br/>value = [11, 0, 0, 6]<br/>class = l>, fillcolor="#f3c6a5"] ;
230 -> 232 ;
233 [label=<gini = 0.0<br/>samples = 6<br/>value = [0, 0, 0, 6]<br/>class = e>, fillcolor="#d739e5"] ;
232 -> 233 ;
234 [label=<gini = 0.0<br/>samples = 11<br/>value = [11, 0, 0, 0]<br/>class = l>, fillcolor="#e58139"] ;
232 -> 234 ;
235 [label=<gini = 0.0<br/>samples = 6<br/>value = [0, 6, 0, 0]<br/>class = a>, fillcolor="#47e539"] ;
229 -> 235 ;
236 [label=<frontal acc &le; -0.924<br/>gini = 0.455<br/>samples = 107<br/>value = [74, 6, 0, 27]<br/>class = l>, fillcolor="#f0b58b"] ;
228 -> 236 ;
237 [label=<frontal acc &le; -0.982<br/>gini = 0.491<br/>samples = 60<br/>value = [34, 0, 0, 26]<br/>class = l>, fillcolor="#f9e1d0"] ;
236 -> 237 ;
238 [label=<vertical acc &le; 1.125<br/>gini = 0.147<br/>samples = 25<br/>value = [23, 0, 0, 2]<br/>class = l>, fillcolor="#e78c4a"] ;
237 -> 238 ;
239 [label=<gini = 0.0<br/>samples = 1<br/>value = [0, 0, 0, 1]<br/>class = e>, fillcolor="#d739e5"] ;
238 -> 239 ;
240 [label=<vertical acc &le; 1.285<br/>gini = 0.08<br/>samples = 24<br/>value = [23, 0, 0, 1]<br/>class = l>, fillcolor="#e68642"] ;
238 -> 240 ;
241 [label=<gini = 0.0<br/>samples = 22<br/>value = [22, 0, 0, 0]<br/>class = l>, fillcolor="#e58139"] ;
240 -> 241 ;
242 [label=<RSSI &le; -1.828<br/>gini = 0.5<br/>samples = 2<br/>value = [1, 0, 0, 1]<br/>class = l>, fillcolor="#ffffff"] ;
240 -> 242 ;
243 [label=<gini = 0.0<br/>samples = 1<br/>value = [0, 0, 0, 1]<br/>class = e>, fillcolor="#d739e5"] ;
242 -> 243 ;
244 [label=<gini = 0.0<br/>samples = 1<br/>value = [1, 0, 0, 0]<br/>class = l>, fillcolor="#e58139"] ;
242 -> 244 ;
245 [label=<lateral acc &le; 0.439<br/>gini = 0.431<br/>samples = 35<br/>value = [11, 0, 0, 24]<br/>class = e>, fillcolor="#e994f1"] ;
237 -> 245 ;
246 [label=<gini = 0.0<br/>samples = 6<br/>value = [6, 0, 0, 0]<br/>class = l>, fillcolor="#e58139"] ;
245 -> 246 ;
247 [label=<RSSI &le; -2.093<br/>gini = 0.285<br/>samples = 29<br/>value = [5, 0, 0, 24]<br/>class = e>, fillcolor="#df62ea"] ;
245 -> 247 ;
248 [label=<gini = 0.0<br/>samples = 3<br/>value = [3, 0, 0, 0]<br/>class = l>, fillcolor="#e58139"] ;
247 -> 248 ;
249 [label=<vertical acc &le; 1.137<br/>gini = 0.142<br/>samples = 26<br/>value = [2, 0, 0, 24]<br/>class = e>, fillcolor="#da49e7"] ;
247 -> 249 ;
250 [label=<gini = 0.0<br/>samples = 1<br/>value = [1, 0, 0, 0]<br/>class = l>, fillcolor="#e58139"] ;
249 -> 250 ;
251 [label=<phase &le; 1.234<br/>gini = 0.077<br/>samples = 25<br/>value = [1, 0, 0, 24]<br/>class = e>, fillcolor="#d941e6"] ;
249 -> 251 ;
252 [label=<gini = 0.0<br/>samples = 24<br/>value = [0, 0, 0, 24]<br/>class = e>, fillcolor="#d739e5"] ;
251 -> 252 ;
253 [label=<gini = 0.0<br/>samples = 1<br/>value = [1, 0, 0, 0]<br/>class = l>, fillcolor="#e58139"] ;
251 -> 253 ;
254 [label=<lateral acc &le; 0.537<br/>gini = 0.259<br/>samples = 47<br/>value = [40, 6, 0, 1]<br/>class = l>, fillcolor="#e9975b"] ;
236 -> 254 ;
255 [label=<frequency &le; -0.9<br/>gini = 0.551<br/>samples = 15<br/>value = [8, 6, 0, 1]<br/>class = l>, fillcolor="#f9e3d3"] ;
254 -> 255 ;
256 [label=<gini = 0.0<br/>samples = 6<br/>value = [0, 6, 0, 0]<br/>class = a>, fillcolor="#47e539"] ;
255 -> 256 ;
257 [label=<lateral acc &le; 0.374<br/>gini = 0.198<br/>samples = 9<br/>value = [8, 0, 0, 1]<br/>class = l>, fillcolor="#e89152"] ;
255 -> 257 ;
258 [label=<gini = 0.0<br/>samples = 8<br/>value = [8, 0, 0, 0]<br/>class = l>, fillcolor="#e58139"] ;
257 -> 258 ;
259 [label=<gini = 0.0<br/>samples = 1<br/>value = [0, 0, 0, 1]<br/>class = e>, fillcolor="#d739e5"] ;
257 -> 259 ;
260 [label=<gini = 0.0<br/>samples = 32<br/>value = [32, 0, 0, 0]<br/>class = l>, fillcolor="#e58139"] ;
254 -> 260 ;
261 [label=<frontal acc &le; -1.658<br/>gini = 0.101<br/>samples = 4728<br/>value = [4480, 89, 0, 159]<br/>class = l>, fillcolor="#e68844"] ;
139 -> 261 ;
262 [label=<lateral acc &le; -0.732<br/>gini = 0.317<br/>samples = 460<br/>value = [374, 22, 0, 64]<br/>class = l>, fillcolor="#eb9c64"] ;
261 -> 262 ;
263 [label=<gini = 0.0<br/>samples = 12<br/>value = [0, 0, 0, 12]<br/>class = e>, fillcolor="#d739e5"] ;
262 -> 263 ;
264 [label=<RSSI &le; -0.819<br/>gini = 0.287<br/>samples = 448<br/>value = [374, 22, 0, 52]<br/>class = l>, fillcolor="#ea995e"] ;
262 -> 264 ;
265 [label=<phase &le; 0.399<br/>gini = 0.523<br/>samples = 39<br/>value = [20, 1, 0, 18]<br/>class = l>, fillcolor="#fdf3ec"] ;
264 -> 265 ;
266 [label=<lateral acc &le; 0.829<br/>gini = 0.381<br/>samples = 21<br/>value = [4, 1, 0, 16]<br/>class = e>, fillcolor="#e373ed"] ;
265 -> 266 ;
267 [label=<frontal acc &le; -1.761<br/>gini = 0.204<br/>samples = 18<br/>value = [1, 1, 0, 16]<br/>class = e>, fillcolor="#dc50e8"] ;
266 -> 267 ;
268 [label=<vertical acc &le; 1.371<br/>gini = 0.111<br/>samples = 17<br/>value = [1, 0, 0, 16]<br/>class = e>, fillcolor="#da45e7"] ;
267 -> 268 ;
269 [label=<gini = 0.0<br/>samples = 15<br/>value = [0, 0, 0, 15]<br/>class = e>, fillcolor="#d739e5"] ;
268 -> 269 ;
270 [label=<phase &le; -0.489<br/>gini = 0.5<br/>samples = 2<br/>value = [1, 0, 0, 1]<br/>class = l>, fillcolor="#ffffff"] ;
268 -> 270 ;
271 [label=<gini = 0.0<br/>samples = 1<br/>value = [1, 0, 0, 0]<br/>class = l>, fillcolor="#e58139"] ;
270 -> 271 ;
272 [label=<gini = 0.0<br/>samples = 1<br/>value = [0, 0, 0, 1]<br/>class = e>, fillcolor="#d739e5"] ;
270 -> 272 ;
273 [label=<gini = 0.0<br/>samples = 1<br/>value = [0, 1, 0, 0]<br/>class = a>, fillcolor="#47e539"] ;
267 -> 273 ;
274 [label=<gini = 0.0<br/>samples = 3<br/>value = [3, 0, 0, 0]<br/>class = l>, fillcolor="#e58139"] ;
266 -> 274 ;
275 [label=<frontal acc &le; -2.216<br/>gini = 0.198<br/>samples = 18<br/>value = [16, 0, 0, 2]<br/>class = l>, fillcolor="#e89152"] ;
265 -> 275 ;
276 [label=<gini = 0.0<br/>samples = 14<br/>value = [14, 0, 0, 0]<br/>class = l>, fillcolor="#e58139"] ;
275 -> 276 ;
277 [label=<phase &le; 0.837<br/>gini = 0.5<br/>samples = 4<br/>value = [2, 0, 0, 2]<br/>class = l>, fillcolor="#ffffff"] ;
275 -> 277 ;
278 [label=<gini = 0.0<br/>samples = 2<br/>value = [2, 0, 0, 0]<br/>class = l>, fillcolor="#e58139"] ;
277 -> 278 ;
279 [label=<gini = 0.0<br/>samples = 2<br/>value = [0, 0, 0, 2]<br/>class = e>, fillcolor="#d739e5"] ;
277 -> 279 ;
280 [label=<lateral acc &le; 0.504<br/>gini = 0.241<br/>samples = 409<br/>value = [354, 21, 0, 34]<br/>class = l>, fillcolor="#e99356"] ;
264 -> 280 ;
281 [label=<vertical acc &le; 1.211<br/>gini = 0.094<br/>samples = 244<br/>value = [232, 3, 0, 9]<br/>class = l>, fillcolor="#e68743"] ;
280 -> 281 ;
282 [label=<frontal acc &le; -1.893<br/>gini = 0.455<br/>samples = 20<br/>value = [13, 0, 0, 7]<br/>class = l>, fillcolor="#f3c5a4"] ;
281 -> 282 ;
283 [label=<vertical acc &le; 1.15<br/>gini = 0.153<br/>samples = 12<br/>value = [11, 0, 0, 1]<br/>class = l>, fillcolor="#e78c4b"] ;
282 -> 283 ;
284 [label=<frequency &le; 0.28<br/>gini = 0.444<br/>samples = 3<br/>value = [2, 0, 0, 1]<br/>class = l>, fillcolor="#f2c09c"] ;
283 -> 284 ;
285 [label=<gini = 0.0<br/>samples = 2<br/>value = [2, 0, 0, 0]<br/>class = l>, fillcolor="#e58139"] ;
284 -> 285 ;
286 [label=<gini = 0.0<br/>samples = 1<br/>value = [0, 0, 0, 1]<br/>class = e>, fillcolor="#d739e5"] ;
284 -> 286 ;
287 [label=<gini = 0.0<br/>samples = 9<br/>value = [9, 0, 0, 0]<br/>class = l>, fillcolor="#e58139"] ;
283 -> 287 ;
288 [label=<RSSI &le; -0.181<br/>gini = 0.375<br/>samples = 8<br/>value = [2, 0, 0, 6]<br/>class = e>, fillcolor="#e47bee"] ;
282 -> 288 ;
289 [label=<gini = 0.0<br/>samples = 6<br/>value = [0, 0, 0, 6]<br/>class = e>, fillcolor="#d739e5"] ;
288 -> 289 ;
290 [label=<gini = 0.0<br/>samples = 2<br/>value = [2, 0, 0, 0]<br/>class = l>, fillcolor="#e58139"] ;
288 -> 290 ;
291 [label=<lateral acc &le; -0.179<br/>gini = 0.044<br/>samples = 224<br/>value = [219, 3, 0, 2]<br/>class = l>, fillcolor="#e6843d"] ;
281 -> 291 ;
292 [label=<frontal acc &le; -2.128<br/>gini = 0.625<br/>samples = 4<br/>value = [1, 2, 0, 1]<br/>class = a>, fillcolor="#c2f6bd"] ;
291 -> 292 ;
293 [label=<gini = 0.0<br/>samples = 2<br/>value = [0, 2, 0, 0]<br/>class = a>, fillcolor="#47e539"] ;
292 -> 293 ;
294 [label=<phase &le; -0.274<br/>gini = 0.5<br/>samples = 2<br/>value = [1, 0, 0, 1]<br/>class = l>, fillcolor="#ffffff"] ;
292 -> 294 ;
295 [label=<gini = 0.0<br/>samples = 1<br/>value = [1, 0, 0, 0]<br/>class = l>, fillcolor="#e58139"] ;
294 -> 295 ;
296 [label=<gini = 0.0<br/>samples = 1<br/>value = [0, 0, 0, 1]<br/>class = e>, fillcolor="#d739e5"] ;
294 -> 296 ;
297 [label=<frequency &le; -1.047<br/>gini = 0.018<br/>samples = 220<br/>value = [218, 1, 0, 1]<br/>class = l>, fillcolor="#e5823b"] ;
291 -> 297 ;
298 [label=<phase &le; 0.805<br/>gini = 0.375<br/>samples = 4<br/>value = [3, 0, 0, 1]<br/>class = l>, fillcolor="#eeab7b"] ;
297 -> 298 ;
299 [label=<gini = 0.0<br/>samples = 1<br/>value = [0, 0, 0, 1]<br/>class = e>, fillcolor="#d739e5"] ;
298 -> 299 ;
300 [label=<gini = 0.0<br/>samples = 3<br/>value = [3, 0, 0, 0]<br/>class = l>, fillcolor="#e58139"] ;
298 -> 300 ;
301 [label=<frontal acc &le; -1.878<br/>gini = 0.009<br/>samples = 216<br/>value = [215, 1, 0, 0]<br/>class = l>, fillcolor="#e5823a"] ;
297 -> 301 ;
302 [label=<gini = 0.0<br/>samples = 153<br/>value = [153, 0, 0, 0]<br/>class = l>, fillcolor="#e58139"] ;
301 -> 302 ;
303 [label=<frontal acc &le; -1.82<br/>gini = 0.031<br/>samples = 63<br/>value = [62, 1, 0, 0]<br/>class = l>, fillcolor="#e5833c"] ;
301 -> 303 ;
304 [label=<phase &le; -0.712<br/>gini = 0.245<br/>samples = 7<br/>value = [6, 1, 0, 0]<br/>class = l>, fillcolor="#e9965a"] ;
303 -> 304 ;
305 [label=<gini = 0.0<br/>samples = 6<br/>value = [6, 0, 0, 0]<br/>class = l>, fillcolor="#e58139"] ;
304 -> 305 ;
306 [label=<gini = 0.0<br/>samples = 1<br/>value = [0, 1, 0, 0]<br/>class = a>, fillcolor="#47e539"] ;
304 -> 306 ;
307 [label=<gini = 0.0<br/>samples = 56<br/>value = [56, 0, 0, 0]<br/>class = l>, fillcolor="#e58139"] ;
303 -> 307 ;
308 [label=<phase &le; -1.254<br/>gini = 0.418<br/>samples = 165<br/>value = [122, 18, 0, 25]<br/>class = l>, fillcolor="#eda876"] ;
280 -> 308 ;
309 [label=<phase &le; -1.31<br/>gini = 0.487<br/>samples = 31<br/>value = [18, 0, 0, 13]<br/>class = l>, fillcolor="#f8dcc8"] ;
308 -> 309 ;
310 [label=<gini = 0.0<br/>samples = 16<br/>value = [16, 0, 0, 0]<br/>class = l>, fillcolor="#e58139"] ;
309 -> 310 ;
311 [label=<lateral acc &le; 1.122<br/>gini = 0.231<br/>samples = 15<br/>value = [2, 0, 0, 13]<br/>class = e>, fillcolor="#dd57e9"] ;
309 -> 311 ;
312 [label=<RSSI &le; -0.181<br/>gini = 0.133<br/>samples = 14<br/>value = [1, 0, 0, 13]<br/>class = e>, fillcolor="#da48e7"] ;
311 -> 312 ;
313 [label=<gini = 0.0<br/>samples = 13<br/>value = [0, 0, 0, 13]<br/>class = e>, fillcolor="#d739e5"] ;
312 -> 313 ;
314 [label=<gini = 0.0<br/>samples = 1<br/>value = [1, 0, 0, 0]<br/>class = l>, fillcolor="#e58139"] ;
312 -> 314 ;
315 [label=<gini = 0.0<br/>samples = 1<br/>value = [1, 0, 0, 0]<br/>class = l>, fillcolor="#e58139"] ;
311 -> 315 ;
316 [label=<frontal acc &le; -1.922<br/>gini = 0.372<br/>samples = 134<br/>value = [104, 18, 0, 12]<br/>class = l>, fillcolor="#eca26c"] ;
308 -> 316 ;
317 [label=<lateral acc &le; 1.415<br/>gini = 0.281<br/>samples = 92<br/>value = [77, 3, 0, 12]<br/>class = l>, fillcolor="#ea995e"] ;
316 -> 317 ;
318 [label=<frequency &le; -0.752<br/>gini = 0.225<br/>samples = 88<br/>value = [77, 3, 0, 8]<br/>class = l>, fillcolor="#e99254"] ;
317 -> 318 ;
319 [label=<RSSI &le; -0.075<br/>gini = 0.457<br/>samples = 17<br/>value = [11, 0, 0, 6]<br/>class = l>, fillcolor="#f3c6a5"] ;
318 -> 319 ;
320 [label=<gini = 0.0<br/>samples = 6<br/>value = [0, 0, 0, 6]<br/>class = e>, fillcolor="#d739e5"] ;
319 -> 320 ;
321 [label=<gini = 0.0<br/>samples = 11<br/>value = [11, 0, 0, 0]<br/>class = l>, fillcolor="#e58139"] ;
319 -> 321 ;
322 [label=<RSSI &le; -0.606<br/>gini = 0.133<br/>samples = 71<br/>value = [66, 3, 0, 2]<br/>class = l>, fillcolor="#e78a48"] ;
318 -> 322 ;
323 [label=<gini = 0.0<br/>samples = 1<br/>value = [0, 0, 0, 1]<br/>class = e>, fillcolor="#d739e5"] ;
322 -> 323 ;
324 [label=<lateral acc &le; 0.96<br/>gini = 0.109<br/>samples = 70<br/>value = [66, 3, 0, 1]<br/>class = l>, fillcolor="#e78945"] ;
322 -> 324 ;
325 [label=<frequency &le; 0.723<br/>gini = 0.059<br/>samples = 66<br/>value = [64, 1, 0, 1]<br/>class = l>, fillcolor="#e6853f"] ;
324 -> 325 ;
326 [label=<RSSI &le; -0.288<br/>gini = 0.119<br/>samples = 32<br/>value = [30, 1, 0, 1]<br/>class = l>, fillcolor="#e78946"] ;
325 -> 326 ;
327 [label=<phase &le; -0.124<br/>gini = 0.5<br/>samples = 2<br/>value = [1, 0, 0, 1]<br/>class = l>, fillcolor="#ffffff"] ;
326 -> 327 ;
328 [label=<gini = 0.0<br/>samples = 1<br/>value = [1, 0, 0, 0]<br/>class = l>, fillcolor="#e58139"] ;
327 -> 328 ;
329 [label=<gini = 0.0<br/>samples = 1<br/>value = [0, 0, 0, 1]<br/>class = e>, fillcolor="#d739e5"] ;
327 -> 329 ;
330 [label=<frequency &le; 0.428<br/>gini = 0.064<br/>samples = 30<br/>value = [29, 1, 0, 0]<br/>class = l>, fillcolor="#e68540"] ;
326 -> 330 ;
331 [label=<gini = 0.0<br/>samples = 22<br/>value = [22, 0, 0, 0]<br/>class = l>, fillcolor="#e58139"] ;
330 -> 331 ;
332 [label=<vertical acc &le; 1.211<br/>gini = 0.219<br/>samples = 8<br/>value = [7, 1, 0, 0]<br/>class = l>, fillcolor="#e99355"] ;
330 -> 332 ;
333 [label=<gini = 0.0<br/>samples = 5<br/>value = [5, 0, 0, 0]<br/>class = l>, fillcolor="#e58139"] ;
332 -> 333 ;
334 [label=<RSSI &le; -0.075<br/>gini = 0.444<br/>samples = 3<br/>value = [2, 1, 0, 0]<br/>class = l>, fillcolor="#f2c09c"] ;
332 -> 334 ;
335 [label=<gini = 0.0<br/>samples = 1<br/>value = [0, 1, 0, 0]<br/>class = a>, fillcolor="#47e539"] ;
334 -> 335 ;
336 [label=<gini = 0.0<br/>samples = 2<br/>value = [2, 0, 0, 0]<br/>class = l>, fillcolor="#e58139"] ;
334 -> 336 ;
337 [label=<gini = 0.0<br/>samples = 34<br/>value = [34, 0, 0, 0]<br/>class = l>, fillcolor="#e58139"] ;
325 -> 337 ;
338 [label=<frontal acc &le; -2.348<br/>gini = 0.5<br/>samples = 4<br/>value = [2, 2, 0, 0]<br/>class = l>, fillcolor="#ffffff"] ;
324 -> 338 ;
339 [label=<gini = 0.0<br/>samples = 1<br/>value = [1, 0, 0, 0]<br/>class = l>, fillcolor="#e58139"] ;
338 -> 339 ;
340 [label=<lateral acc &le; 1.252<br/>gini = 0.444<br/>samples = 3<br/>value = [1, 2, 0, 0]<br/>class = a>, fillcolor="#a3f29c"] ;
338 -> 340 ;
341 [label=<gini = 0.0<br/>samples = 2<br/>value = [0, 2, 0, 0]<br/>class = a>, fillcolor="#47e539"] ;
340 -> 341 ;
342 [label=<gini = 0.0<br/>samples = 1<br/>value = [1, 0, 0, 0]<br/>class = l>, fillcolor="#e58139"] ;
340 -> 342 ;
343 [label=<gini = 0.0<br/>samples = 4<br/>value = [0, 0, 0, 4]<br/>class = e>, fillcolor="#d739e5"] ;
317 -> 343 ;
344 [label=<frequency &le; 0.723<br/>gini = 0.459<br/>samples = 42<br/>value = [27, 15, 0, 0]<br/>class = l>, fillcolor="#f3c7a7"] ;
316 -> 344 ;
345 [label=<frequency &le; -0.162<br/>gini = 0.153<br/>samples = 24<br/>value = [22, 2, 0, 0]<br/>class = l>, fillcolor="#e78c4b"] ;
344 -> 345 ;
346 [label=<gini = 0.0<br/>samples = 15<br/>value = [15, 0, 0, 0]<br/>class = l>, fillcolor="#e58139"] ;
345 -> 346 ;
347 [label=<RSSI &le; -0.075<br/>gini = 0.346<br/>samples = 9<br/>value = [7, 2, 0, 0]<br/>class = l>, fillcolor="#eca572"] ;
345 -> 347 ;
348 [label=<vertical acc &le; 1.187<br/>gini = 0.219<br/>samples = 8<br/>value = [7, 1, 0, 0]<br/>class = l>, fillcolor="#e99355"] ;
347 -> 348 ;
349 [label=<lateral acc &le; 1.057<br/>gini = 0.444<br/>samples = 3<br/>value = [2, 1, 0, 0]<br/>class = l>, fillcolor="#f2c09c"] ;
348 -> 349 ;
350 [label=<gini = 0.0<br/>samples = 1<br/>value = [0, 1, 0, 0]<br/>class = a>, fillcolor="#47e539"] ;
349 -> 350 ;
351 [label=<gini = 0.0<br/>samples = 2<br/>value = [2, 0, 0, 0]<br/>class = l>, fillcolor="#e58139"] ;
349 -> 351 ;
352 [label=<gini = 0.0<br/>samples = 5<br/>value = [5, 0, 0, 0]<br/>class = l>, fillcolor="#e58139"] ;
348 -> 352 ;
353 [label=<gini = 0.0<br/>samples = 1<br/>value = [0, 1, 0, 0]<br/>class = a>, fillcolor="#47e539"] ;
347 -> 353 ;
354 [label=<phase &le; 1.319<br/>gini = 0.401<br/>samples = 18<br/>value = [5, 13, 0, 0]<br/>class = a>, fillcolor="#8eef85"] ;
344 -> 354 ;
355 [label=<frequency &le; 1.313<br/>gini = 0.305<br/>samples = 16<br/>value = [3, 13, 0, 0]<br/>class = a>, fillcolor="#71eb67"] ;
354 -> 355 ;
356 [label=<lateral acc &le; 0.732<br/>gini = 0.5<br/>samples = 6<br/>value = [3, 3, 0, 0]<br/>class = l>, fillcolor="#ffffff"] ;
355 -> 356 ;
357 [label=<gini = 0.0<br/>samples = 2<br/>value = [2, 0, 0, 0]<br/>class = l>, fillcolor="#e58139"] ;
356 -> 357 ;
358 [label=<vertical acc &le; 1.137<br/>gini = 0.375<br/>samples = 4<br/>value = [1, 3, 0, 0]<br/>class = a>, fillcolor="#84ee7b"] ;
356 -> 358 ;
359 [label=<gini = 0.0<br/>samples = 1<br/>value = [1, 0, 0, 0]<br/>class = l>, fillcolor="#e58139"] ;
358 -> 359 ;
360 [label=<gini = 0.0<br/>samples = 3<br/>value = [0, 3, 0, 0]<br/>class = a>, fillcolor="#47e539"] ;
358 -> 360 ;
361 [label=<gini = 0.0<br/>samples = 10<br/>value = [0, 10, 0, 0]<br/>class = a>, fillcolor="#47e539"] ;
355 -> 361 ;
362 [label=<gini = 0.0<br/>samples = 2<br/>value = [2, 0, 0, 0]<br/>class = l>, fillcolor="#e58139"] ;
354 -> 362 ;
363 [label=<vertical acc &le; 1.187<br/>gini = 0.074<br/>samples = 4268<br/>value = [4106, 67, 0, 95]<br/>class = l>, fillcolor="#e68641"] ;
261 -> 363 ;
364 [label=<frequency &le; 1.018<br/>gini = 0.219<br/>samples = 669<br/>value = [588, 25, 0, 56]<br/>class = l>, fillcolor="#e89253"] ;
363 -> 364 ;
365 [label=<frontal acc &le; -0.924<br/>gini = 0.142<br/>samples = 465<br/>value = [430, 10, 0, 25]<br/>class = l>, fillcolor="#e78b49"] ;
364 -> 365 ;
366 [label=<lateral acc &le; 0.699<br/>gini = 0.252<br/>samples = 174<br/>value = [149, 4, 0, 21]<br/>class = l>, fillcolor="#e99659"] ;
365 -> 366 ;
367 [label=<frontal acc &le; -0.953<br/>gini = 0.496<br/>samples = 46<br/>value = [25, 0, 0, 21]<br/>class = l>, fillcolor="#fbebdf"] ;
366 -> 367 ;
368 [label=<lateral acc &le; 0.146<br/>gini = 0.397<br/>samples = 33<br/>value = [24, 0, 0, 9]<br/>class = l>, fillcolor="#efb083"] ;
367 -> 368 ;
369 [label=<RSSI &le; -0.5<br/>gini = 0.459<br/>samples = 14<br/>value = [5, 0, 0, 9]<br/>class = e>, fillcolor="#eda7f3"] ;
368 -> 369 ;
370 [label=<gini = 0.0<br/>samples = 7<br/>value = [0, 0, 0, 7]<br/>class = e>, fillcolor="#d739e5"] ;
369 -> 370 ;
371 [label=<lateral acc &le; -0.244<br/>gini = 0.408<br/>samples = 7<br/>value = [5, 0, 0, 2]<br/>class = l>, fillcolor="#efb388"] ;
369 -> 371 ;
372 [label=<gini = 0.0<br/>samples = 2<br/>value = [0, 0, 0, 2]<br/>class = e>, fillcolor="#d739e5"] ;
371 -> 372 ;
373 [label=<gini = 0.0<br/>samples = 5<br/>value = [5, 0, 0, 0]<br/>class = l>, fillcolor="#e58139"] ;
371 -> 373 ;
374 [label=<gini = 0.0<br/>samples = 19<br/>value = [19, 0, 0, 0]<br/>class = l>, fillcolor="#e58139"] ;
368 -> 374 ;
375 [label=<lateral acc &le; 0.342<br/>gini = 0.142<br/>samples = 13<br/>value = [1, 0, 0, 12]<br/>class = e>, fillcolor="#da49e7"] ;
367 -> 375 ;
376 [label=<gini = 0.0<br/>samples = 1<br/>value = [1, 0, 0, 0]<br/>class = l>, fillcolor="#e58139"] ;
375 -> 376 ;
377 [label=<gini = 0.0<br/>samples = 12<br/>value = [0, 0, 0, 12]<br/>class = e>, fillcolor="#d739e5"] ;
375 -> 377 ;
378 [label=<phase &le; 1.326<br/>gini = 0.061<br/>samples = 128<br/>value = [124, 4, 0, 0]<br/>class = l>, fillcolor="#e6853f"] ;
366 -> 378 ;
379 [label=<frontal acc &le; -0.953<br/>gini = 0.046<br/>samples = 126<br/>value = [123, 3, 0, 0]<br/>class = l>, fillcolor="#e6843e"] ;
378 -> 379 ;
380 [label=<gini = 0.0<br/>samples = 100<br/>value = [100, 0, 0, 0]<br/>class = l>, fillcolor="#e58139"] ;
379 -> 380 ;
381 [label=<RSSI &le; -0.075<br/>gini = 0.204<br/>samples = 26<br/>value = [23, 3, 0, 0]<br/>class = l>, fillcolor="#e89153"] ;
379 -> 381 ;
382 [label=<frequency &le; -1.343<br/>gini = 0.08<br/>samples = 24<br/>value = [23, 1, 0, 0]<br/>class = l>, fillcolor="#e68642"] ;
381 -> 382 ;
383 [label=<vertical acc &le; 1.162<br/>gini = 0.5<br/>samples = 2<br/>value = [1, 1, 0, 0]<br/>class = l>, fillcolor="#ffffff"] ;
382 -> 383 ;
384 [label=<gini = 0.0<br/>samples = 1<br/>value = [0, 1, 0, 0]<br/>class = a>, fillcolor="#47e539"] ;
383 -> 384 ;
385 [label=<gini = 0.0<br/>samples = 1<br/>value = [1, 0, 0, 0]<br/>class = l>, fillcolor="#e58139"] ;
383 -> 385 ;
386 [label=<gini = 0.0<br/>samples = 22<br/>value = [22, 0, 0, 0]<br/>class = l>, fillcolor="#e58139"] ;
382 -> 386 ;
387 [label=<gini = 0.0<br/>samples = 2<br/>value = [0, 2, 0, 0]<br/>class = a>, fillcolor="#47e539"] ;
381 -> 387 ;
388 [label=<lateral acc &le; 1.122<br/>gini = 0.5<br/>samples = 2<br/>value = [1, 1, 0, 0]<br/>class = l>, fillcolor="#ffffff"] ;
378 -> 388 ;
389 [label=<gini = 0.0<br/>samples = 1<br/>value = [1, 0, 0, 0]<br/>class = l>, fillcolor="#e58139"] ;
388 -> 389 ;
390 [label=<gini = 0.0<br/>samples = 1<br/>value = [0, 1, 0, 0]<br/>class = a>, fillcolor="#47e539"] ;
388 -> 390 ;
391 [label=<lateral acc &le; -0.081<br/>gini = 0.067<br/>samples = 291<br/>value = [281, 6, 0, 4]<br/>class = l>, fillcolor="#e68540"] ;
365 -> 391 ;
392 [label=<lateral acc &le; -0.211<br/>gini = 0.346<br/>samples = 18<br/>value = [14, 4, 0, 0]<br/>class = l>, fillcolor="#eca572"] ;
391 -> 392 ;
393 [label=<gini = 0.0<br/>samples = 12<br/>value = [12, 0, 0, 0]<br/>class = l>, fillcolor="#e58139"] ;
392 -> 393 ;
394 [label=<frontal acc &le; -0.894<br/>gini = 0.444<br/>samples = 6<br/>value = [2, 4, 0, 0]<br/>class = a>, fillcolor="#a3f29c"] ;
392 -> 394 ;
395 [label=<gini = 0.0<br/>samples = 2<br/>value = [2, 0, 0, 0]<br/>class = l>, fillcolor="#e58139"] ;
394 -> 395 ;
396 [label=<gini = 0.0<br/>samples = 4<br/>value = [0, 4, 0, 0]<br/>class = a>, fillcolor="#47e539"] ;
394 -> 396 ;
397 [label=<vertical acc &le; 1.113<br/>gini = 0.043<br/>samples = 273<br/>value = [267, 2, 0, 4]<br/>class = l>, fillcolor="#e6843d"] ;
391 -> 397 ;
398 [label=<frontal acc &le; -0.865<br/>gini = 0.355<br/>samples = 13<br/>value = [10, 0, 0, 3]<br/>class = l>, fillcolor="#eda774"] ;
397 -> 398 ;
399 [label=<gini = 0.0<br/>samples = 2<br/>value = [0, 0, 0, 2]<br/>class = e>, fillcolor="#d739e5"] ;
398 -> 399 ;
400 [label=<lateral acc &le; 0.569<br/>gini = 0.165<br/>samples = 11<br/>value = [10, 0, 0, 1]<br/>class = l>, fillcolor="#e88e4d"] ;
398 -> 400 ;
401 [label=<gini = 0.0<br/>samples = 1<br/>value = [0, 0, 0, 1]<br/>class = e>, fillcolor="#d739e5"] ;
400 -> 401 ;
402 [label=<gini = 0.0<br/>samples = 10<br/>value = [10, 0, 0, 0]<br/>class = l>, fillcolor="#e58139"] ;
400 -> 402 ;
403 [label=<phase &le; -0.988<br/>gini = 0.023<br/>samples = 260<br/>value = [257, 2, 0, 1]<br/>class = l>, fillcolor="#e5823b"] ;
397 -> 403 ;
404 [label=<phase &le; -1.05<br/>gini = 0.098<br/>samples = 59<br/>value = [56, 2, 0, 1]<br/>class = l>, fillcolor="#e68843"] ;
403 -> 404 ;
405 [label=<RSSI &le; -0.181<br/>gini = 0.067<br/>samples = 58<br/>value = [56, 2, 0, 0]<br/>class = l>, fillcolor="#e68640"] ;
404 -> 405 ;
406 [label=<gini = 0.0<br/>samples = 44<br/>value = [44, 0, 0, 0]<br/>class = l>, fillcolor="#e58139"] ;
405 -> 406 ;
407 [label=<lateral acc &le; 0.634<br/>gini = 0.245<br/>samples = 14<br/>value = [12, 2, 0, 0]<br/>class = l>, fillcolor="#e9965a"] ;
405 -> 407 ;
408 [label=<lateral acc &le; 0.309<br/>gini = 0.5<br/>samples = 4<br/>value = [2, 2, 0, 0]<br/>class = l>, fillcolor="#ffffff"] ;
407 -> 408 ;
409 [label=<gini = 0.0<br/>samples = 2<br/>value = [2, 0, 0, 0]<br/>class = l>, fillcolor="#e58139"] ;
408 -> 409 ;
410 [label=<gini = 0.0<br/>samples = 2<br/>value = [0, 2, 0, 0]<br/>class = a>, fillcolor="#47e539"] ;
408 -> 410 ;
411 [label=<gini = 0.0<br/>samples = 10<br/>value = [10, 0, 0, 0]<br/>class = l>, fillcolor="#e58139"] ;
407 -> 411 ;
412 [label=<gini = 0.0<br/>samples = 1<br/>value = [0, 0, 0, 1]<br/>class = e>, fillcolor="#d739e5"] ;
404 -> 412 ;
413 [label=<gini = 0.0<br/>samples = 201<br/>value = [201, 0, 0, 0]<br/>class = l>, fillcolor="#e58139"] ;
403 -> 413 ;
414 [label=<phase &le; -0.443<br/>gini = 0.372<br/>samples = 204<br/>value = [158, 15, 0, 31]<br/>class = l>, fillcolor="#eca36e"] ;
364 -> 414 ;
415 [label=<RSSI &le; -0.5<br/>gini = 0.527<br/>samples = 93<br/>value = [58, 10, 0, 25]<br/>class = l>, fillcolor="#f2c29f"] ;
414 -> 415 ;
416 [label=<phase &le; -1.449<br/>gini = 0.233<br/>samples = 52<br/>value = [45, 0, 0, 7]<br/>class = l>, fillcolor="#e99558"] ;
415 -> 416 ;
417 [label=<gini = 0.0<br/>samples = 6<br/>value = [0, 0, 0, 6]<br/>class = e>, fillcolor="#d739e5"] ;
416 -> 417 ;
418 [label=<lateral acc &le; -0.667<br/>gini = 0.043<br/>samples = 46<br/>value = [45, 0, 0, 1]<br/>class = l>, fillcolor="#e6843d"] ;
416 -> 418 ;
419 [label=<gini = 0.0<br/>samples = 1<br/>value = [0, 0, 0, 1]<br/>class = e>, fillcolor="#d739e5"] ;
418 -> 419 ;
420 [label=<gini = 0.0<br/>samples = 45<br/>value = [45, 0, 0, 0]<br/>class = l>, fillcolor="#e58139"] ;
418 -> 420 ;
421 [label=<phase &le; -0.54<br/>gini = 0.647<br/>samples = 41<br/>value = [13, 10, 0, 18]<br/>class = e>, fillcolor="#f8dcfa"] ;
415 -> 421 ;
422 [label=<frontal acc &le; -0.777<br/>gini = 0.637<br/>samples = 29<br/>value = [13, 10, 0, 6]<br/>class = l>, fillcolor="#fbebe0"] ;
421 -> 422 ;
423 [label=<vertical acc &le; 1.137<br/>gini = 0.582<br/>samples = 23<br/>value = [13, 4, 0, 6]<br/>class = l>, fillcolor="#f4cbad"] ;
422 -> 423 ;
424 [label=<RSSI &le; -0.341<br/>gini = 0.56<br/>samples = 10<br/>value = [2, 2, 0, 6]<br/>class = e>, fillcolor="#eb9cf2"] ;
423 -> 424 ;
425 [label=<phase &le; -1.143<br/>gini = 0.375<br/>samples = 8<br/>value = [2, 0, 0, 6]<br/>class = e>, fillcolor="#e47bee"] ;
424 -> 425 ;
426 [label=<gini = 0.0<br/>samples = 6<br/>value = [0, 0, 0, 6]<br/>class = e>, fillcolor="#d739e5"] ;
425 -> 426 ;
427 [label=<gini = 0.0<br/>samples = 2<br/>value = [2, 0, 0, 0]<br/>class = l>, fillcolor="#e58139"] ;
425 -> 427 ;
428 [label=<gini = 0.0<br/>samples = 2<br/>value = [0, 2, 0, 0]<br/>class = a>, fillcolor="#47e539"] ;
424 -> 428 ;
429 [label=<lateral acc &le; 1.187<br/>gini = 0.26<br/>samples = 13<br/>value = [11, 2, 0, 0]<br/>class = l>, fillcolor="#ea985d"] ;
423 -> 429 ;
430 [label=<phase &le; -1.334<br/>gini = 0.165<br/>samples = 11<br/>value = [10, 1, 0, 0]<br/>class = l>, fillcolor="#e88e4d"] ;
429 -> 430 ;
431 [label=<lateral acc &le; 0.764<br/>gini = 0.375<br/>samples = 4<br/>value = [3, 1, 0, 0]<br/>class = l>, fillcolor="#eeab7b"] ;
430 -> 431 ;
432 [label=<gini = 0.0<br/>samples = 1<br/>value = [0, 1, 0, 0]<br/>class = a>, fillcolor="#47e539"] ;
431 -> 432 ;
433 [label=<gini = 0.0<br/>samples = 3<br/>value = [3, 0, 0, 0]<br/>class = l>, fillcolor="#e58139"] ;
431 -> 433 ;
434 [label=<gini = 0.0<br/>samples = 7<br/>value = [7, 0, 0, 0]<br/>class = l>, fillcolor="#e58139"] ;
430 -> 434 ;
435 [label=<frontal acc &le; -1.129<br/>gini = 0.5<br/>samples = 2<br/>value = [1, 1, 0, 0]<br/>class = l>, fillcolor="#ffffff"] ;
429 -> 435 ;
436 [label=<gini = 0.0<br/>samples = 1<br/>value = [0, 1, 0, 0]<br/>class = a>, fillcolor="#47e539"] ;
435 -> 436 ;
437 [label=<gini = 0.0<br/>samples = 1<br/>value = [1, 0, 0, 0]<br/>class = l>, fillcolor="#e58139"] ;
435 -> 437 ;
438 [label=<gini = 0.0<br/>samples = 6<br/>value = [0, 6, 0, 0]<br/>class = a>, fillcolor="#47e539"] ;
422 -> 438 ;
439 [label=<gini = 0.0<br/>samples = 12<br/>value = [0, 0, 0, 12]<br/>class = e>, fillcolor="#d739e5"] ;
421 -> 439 ;
440 [label=<lateral acc &le; 1.122<br/>gini = 0.183<br/>samples = 111<br/>value = [100, 5, 0, 6]<br/>class = l>, fillcolor="#e88e4e"] ;
414 -> 440 ;
441 [label=<lateral acc &le; -0.407<br/>gini = 0.087<br/>samples = 88<br/>value = [84, 4, 0, 0]<br/>class = l>, fillcolor="#e68742"] ;
440 -> 441 ;
442 [label=<gini = 0.0<br/>samples = 1<br/>value = [0, 1, 0, 0]<br/>class = a>, fillcolor="#47e539"] ;
441 -> 442 ;
443 [label=<lateral acc &le; -0.016<br/>gini = 0.067<br/>samples = 87<br/>value = [84, 3, 0, 0]<br/>class = l>, fillcolor="#e68640"] ;
441 -> 443 ;
444 [label=<phase &le; 0.417<br/>gini = 0.32<br/>samples = 10<br/>value = [8, 2, 0, 0]<br/>class = l>, fillcolor="#eca06a"] ;
443 -> 444 ;
445 [label=<gini = 0.0<br/>samples = 7<br/>value = [7, 0, 0, 0]<br/>class = l>, fillcolor="#e58139"] ;
444 -> 445 ;
446 [label=<lateral acc &le; -0.179<br/>gini = 0.444<br/>samples = 3<br/>value = [1, 2, 0, 0]<br/>class = a>, fillcolor="#a3f29c"] ;
444 -> 446 ;
447 [label=<gini = 0.0<br/>samples = 1<br/>value = [1, 0, 0, 0]<br/>class = l>, fillcolor="#e58139"] ;
446 -> 447 ;
448 [label=<gini = 0.0<br/>samples = 2<br/>value = [0, 2, 0, 0]<br/>class = a>, fillcolor="#47e539"] ;
446 -> 448 ;
449 [label=<RSSI &le; -0.075<br/>gini = 0.026<br/>samples = 77<br/>value = [76, 1, 0, 0]<br/>class = l>, fillcolor="#e5833c"] ;
443 -> 449 ;
450 [label=<gini = 0.0<br/>samples = 70<br/>value = [70, 0, 0, 0]<br/>class = l>, fillcolor="#e58139"] ;
449 -> 450 ;
451 [label=<frequency &le; 1.461<br/>gini = 0.245<br/>samples = 7<br/>value = [6, 1, 0, 0]<br/>class = l>, fillcolor="#e9965a"] ;
449 -> 451 ;
452 [label=<gini = 0.0<br/>samples = 5<br/>value = [5, 0, 0, 0]<br/>class = l>, fillcolor="#e58139"] ;
451 -> 452 ;
453 [label=<lateral acc &le; 0.764<br/>gini = 0.5<br/>samples = 2<br/>value = [1, 1, 0, 0]<br/>class = l>, fillcolor="#ffffff"] ;
451 -> 453 ;
454 [label=<gini = 0.0<br/>samples = 1<br/>value = [0, 1, 0, 0]<br/>class = a>, fillcolor="#47e539"] ;
453 -> 454 ;
455 [label=<gini = 0.0<br/>samples = 1<br/>value = [1, 0, 0, 0]<br/>class = l>, fillcolor="#e58139"] ;
453 -> 455 ;
456 [label=<lateral acc &le; 1.22<br/>gini = 0.446<br/>samples = 23<br/>value = [16, 1, 0, 6]<br/>class = l>, fillcolor="#f0b58b"] ;
440 -> 456 ;
457 [label=<vertical acc &le; 1.162<br/>gini = 0.406<br/>samples = 8<br/>value = [1, 1, 0, 6]<br/>class = e>, fillcolor="#e272ec"] ;
456 -> 457 ;
458 [label=<gini = 0.0<br/>samples = 6<br/>value = [0, 0, 0, 6]<br/>class = e>, fillcolor="#d739e5"] ;
457 -> 458 ;
459 [label=<frontal acc &le; -1.1<br/>gini = 0.5<br/>samples = 2<br/>value = [1, 1, 0, 0]<br/>class = l>, fillcolor="#ffffff"] ;
457 -> 459 ;
460 [label=<gini = 0.0<br/>samples = 1<br/>value = [1, 0, 0, 0]<br/>class = l>, fillcolor="#e58139"] ;
459 -> 460 ;
461 [label=<gini = 0.0<br/>samples = 1<br/>value = [0, 1, 0, 0]<br/>class = a>, fillcolor="#47e539"] ;
459 -> 461 ;
462 [label=<gini = 0.0<br/>samples = 15<br/>value = [15, 0, 0, 0]<br/>class = l>, fillcolor="#e58139"] ;
456 -> 462 ;
463 [label=<frontal acc &le; -0.835<br/>gini = 0.044<br/>samples = 3599<br/>value = [3518, 42, 0, 39]<br/>class = l>, fillcolor="#e6843e"] ;
363 -> 463 ;
464 [label=<frequency &le; 1.313<br/>gini = 0.039<br/>samples = 3559<br/>value = [3488, 34, 0, 37]<br/>class = l>, fillcolor="#e6843d"] ;
463 -> 464 ;
465 [label=<frontal acc &le; -1.599<br/>gini = 0.027<br/>samples = 3090<br/>value = [3048, 14, 0, 28]<br/>class = l>, fillcolor="#e5833c"] ;
464 -> 465 ;
466 [label=<lateral acc &le; 0.504<br/>gini = 0.102<br/>samples = 130<br/>value = [123, 0, 0, 7]<br/>class = l>, fillcolor="#e68844"] ;
465 -> 466 ;
467 [label=<RSSI &le; -0.978<br/>gini = 0.018<br/>samples = 113<br/>value = [112, 0, 0, 1]<br/>class = l>, fillcolor="#e5823b"] ;
466 -> 467 ;
468 [label=<vertical acc &le; 1.433<br/>gini = 0.5<br/>samples = 2<br/>value = [1, 0, 0, 1]<br/>class = l>, fillcolor="#ffffff"] ;
467 -> 468 ;
469 [label=<gini = 0.0<br/>samples = 1<br/>value = [0, 0, 0, 1]<br/>class = e>, fillcolor="#d739e5"] ;
468 -> 469 ;
470 [label=<gini = 0.0<br/>samples = 1<br/>value = [1, 0, 0, 0]<br/>class = l>, fillcolor="#e58139"] ;
468 -> 470 ;
471 [label=<gini = 0.0<br/>samples = 111<br/>value = [111, 0, 0, 0]<br/>class = l>, fillcolor="#e58139"] ;
467 -> 471 ;
472 [label=<vertical acc &le; 1.359<br/>gini = 0.457<br/>samples = 17<br/>value = [11, 0, 0, 6]<br/>class = l>, fillcolor="#f3c6a5"] ;
466 -> 472 ;
473 [label=<gini = 0.0<br/>samples = 11<br/>value = [11, 0, 0, 0]<br/>class = l>, fillcolor="#e58139"] ;
472 -> 473 ;
474 [label=<gini = 0.0<br/>samples = 6<br/>value = [0, 0, 0, 6]<br/>class = e>, fillcolor="#d739e5"] ;
472 -> 474 ;
475 [label=<RSSI &le; -0.075<br/>gini = 0.023<br/>samples = 2960<br/>value = [2925, 14, 0, 21]<br/>class = l>, fillcolor="#e5833b"] ;
465 -> 475 ;
476 [label=<lateral acc &le; 0.114<br/>gini = 0.014<br/>samples = 2381<br/>value = [2364, 3, 0, 14]<br/>class = l>, fillcolor="#e5823a"] ;
475 -> 476 ;
477 [label=<vertical acc &le; 1.359<br/>gini = 0.026<br/>samples = 922<br/>value = [910, 0, 0, 12]<br/>class = l>, fillcolor="#e5833c"] ;
476 -> 477 ;
478 [label=<frontal acc &le; -1.438<br/>gini = 0.05<br/>samples = 427<br/>value = [416, 0, 0, 11]<br/>class = l>, fillcolor="#e6843e"] ;
477 -> 478 ;
479 [label=<lateral acc &le; -0.537<br/>gini = 0.5<br/>samples = 4<br/>value = [2, 0, 0, 2]<br/>class = l>, fillcolor="#ffffff"] ;
478 -> 479 ;
480 [label=<gini = 0.0<br/>samples = 2<br/>value = [2, 0, 0, 0]<br/>class = l>, fillcolor="#e58139"] ;
479 -> 480 ;
481 [label=<gini = 0.0<br/>samples = 2<br/>value = [0, 0, 0, 2]<br/>class = e>, fillcolor="#d739e5"] ;
479 -> 481 ;
482 [label=<frequency &le; -0.162<br/>gini = 0.042<br/>samples = 423<br/>value = [414, 0, 0, 9]<br/>class = l>, fillcolor="#e6843d"] ;
478 -> 482 ;
483 [label=<phase &le; 0.81<br/>gini = 0.009<br/>samples = 232<br/>value = [231, 0, 0, 1]<br/>class = l>, fillcolor="#e5823a"] ;
482 -> 483 ;
484 [label=<gini = 0.0<br/>samples = 182<br/>value = [182, 0, 0, 0]<br/>class = l>, fillcolor="#e58139"] ;
483 -> 484 ;
485 [label=<phase &le; 0.853<br/>gini = 0.039<br/>samples = 50<br/>value = [49, 0, 0, 1]<br/>class = l>, fillcolor="#e6843d"] ;
483 -> 485 ;
486 [label=<gini = 0.0<br/>samples = 1<br/>value = [0, 0, 0, 1]<br/>class = e>, fillcolor="#d739e5"] ;
485 -> 486 ;
487 [label=<gini = 0.0<br/>samples = 49<br/>value = [49, 0, 0, 0]<br/>class = l>, fillcolor="#e58139"] ;
485 -> 487 ;
488 [label=<frequency &le; 0.428<br/>gini = 0.08<br/>samples = 191<br/>value = [183, 0, 0, 8]<br/>class = l>, fillcolor="#e68742"] ;
482 -> 488 ;
489 [label=<phase &le; -1.438<br/>gini = 0.153<br/>samples = 84<br/>value = [77, 0, 0, 7]<br/>class = l>, fillcolor="#e78c4b"] ;
488 -> 489 ;
490 [label=<gini = 0.0<br/>samples = 1<br/>value = [0, 0, 0, 1]<br/>class = e>, fillcolor="#d739e5"] ;
489 -> 490 ;
491 [label=<phase &le; -0.919<br/>gini = 0.134<br/>samples = 83<br/>value = [77, 0, 0, 6]<br/>class = l>, fillcolor="#e78b48"] ;
489 -> 491 ;
492 [label=<phase &le; -1.155<br/>gini = 0.355<br/>samples = 13<br/>value = [10, 0, 0, 3]<br/>class = l>, fillcolor="#eda774"] ;
491 -> 492 ;
493 [label=<vertical acc &le; 1.334<br/>gini = 0.18<br/>samples = 10<br/>value = [9, 0, 0, 1]<br/>class = l>, fillcolor="#e88f4f"] ;
492 -> 493 ;
494 [label=<gini = 0.0<br/>samples = 9<br/>value = [9, 0, 0, 0]<br/>class = l>, fillcolor="#e58139"] ;
493 -> 494 ;
495 [label=<gini = 0.0<br/>samples = 1<br/>value = [0, 0, 0, 1]<br/>class = e>, fillcolor="#d739e5"] ;
493 -> 495 ;
496 [label=<frequency &le; 0.133<br/>gini = 0.444<br/>samples = 3<br/>value = [1, 0, 0, 2]<br/>class = e>, fillcolor="#eb9cf2"] ;
492 -> 496 ;
497 [label=<gini = 0.0<br/>samples = 2<br/>value = [0, 0, 0, 2]<br/>class = e>, fillcolor="#d739e5"] ;
496 -> 497 ;
498 [label=<gini = 0.0<br/>samples = 1<br/>value = [1, 0, 0, 0]<br/>class = l>, fillcolor="#e58139"] ;
496 -> 498 ;
499 [label=<lateral acc &le; -0.211<br/>gini = 0.082<br/>samples = 70<br/>value = [67, 0, 0, 3]<br/>class = l>, fillcolor="#e68742"] ;
491 -> 499 ;
500 [label=<gini = 0.0<br/>samples = 36<br/>value = [36, 0, 0, 0]<br/>class = l>, fillcolor="#e58139"] ;
499 -> 500 ;
501 [label=<lateral acc &le; 0.016<br/>gini = 0.161<br/>samples = 34<br/>value = [31, 0, 0, 3]<br/>class = l>, fillcolor="#e88d4c"] ;
499 -> 501 ;
502 [label=<vertical acc &le; 1.31<br/>gini = 0.305<br/>samples = 16<br/>value = [13, 0, 0, 3]<br/>class = l>, fillcolor="#eb9e67"] ;
501 -> 502 ;
503 [label=<frontal acc &le; -1.1<br/>gini = 0.133<br/>samples = 14<br/>value = [13, 0, 0, 1]<br/>class = l>, fillcolor="#e78b48"] ;
502 -> 503 ;
504 [label=<vertical acc &le; 1.285<br/>gini = 0.444<br/>samples = 3<br/>value = [2, 0, 0, 1]<br/>class = l>, fillcolor="#f2c09c"] ;
503 -> 504 ;
505 [label=<gini = 0.0<br/>samples = 1<br/>value = [0, 0, 0, 1]<br/>class = e>, fillcolor="#d739e5"] ;
504 -> 505 ;
506 [label=<gini = 0.0<br/>samples = 2<br/>value = [2, 0, 0, 0]<br/>class = l>, fillcolor="#e58139"] ;
504 -> 506 ;
507 [label=<gini = 0.0<br/>samples = 11<br/>value = [11, 0, 0, 0]<br/>class = l>, fillcolor="#e58139"] ;
503 -> 507 ;
508 [label=<gini = 0.0<br/>samples = 2<br/>value = [0, 0, 0, 2]<br/>class = e>, fillcolor="#d739e5"] ;
502 -> 508 ;
509 [label=<gini = 0.0<br/>samples = 18<br/>value = [18, 0, 0, 0]<br/>class = l>, fillcolor="#e58139"] ;
501 -> 509 ;
510 [label=<phase &le; 1.278<br/>gini = 0.019<br/>samples = 107<br/>value = [106, 0, 0, 1]<br/>class = l>, fillcolor="#e5823b"] ;
488 -> 510 ;
511 [label=<gini = 0.0<br/>samples = 104<br/>value = [104, 0, 0, 0]<br/>class = l>, fillcolor="#e58139"] ;
510 -> 511 ;
512 [label=<lateral acc &le; -0.081<br/>gini = 0.444<br/>samples = 3<br/>value = [2, 0, 0, 1]<br/>class = l>, fillcolor="#f2c09c"] ;
510 -> 512 ;
513 [label=<gini = 0.0<br/>samples = 2<br/>value = [2, 0, 0, 0]<br/>class = l>, fillcolor="#e58139"] ;
512 -> 513 ;
514 [label=<gini = 0.0<br/>samples = 1<br/>value = [0, 0, 0, 1]<br/>class = e>, fillcolor="#d739e5"] ;
512 -> 514 ;
515 [label=<lateral acc &le; 0.049<br/>gini = 0.004<br/>samples = 495<br/>value = [494, 0, 0, 1]<br/>class = l>, fillcolor="#e58139"] ;
477 -> 515 ;
516 [label=<gini = 0.0<br/>samples = 475<br/>value = [475, 0, 0, 0]<br/>class = l>, fillcolor="#e58139"] ;
515 -> 516 ;
517 [label=<phase &le; 0.967<br/>gini = 0.095<br/>samples = 20<br/>value = [19, 0, 0, 1]<br/>class = l>, fillcolor="#e68843"] ;
515 -> 517 ;
518 [label=<gini = 0.0<br/>samples = 19<br/>value = [19, 0, 0, 0]<br/>class = l>, fillcolor="#e58139"] ;
517 -> 518 ;
519 [label=<gini = 0.0<br/>samples = 1<br/>value = [0, 0, 0, 1]<br/>class = e>, fillcolor="#d739e5"] ;
517 -> 519 ;
520 [label=<phase &le; 1.306<br/>gini = 0.007<br/>samples = 1459<br/>value = [1454, 3, 0, 2]<br/>class = l>, fillcolor="#e5813a"] ;
476 -> 520 ;
521 [label=<vertical acc &le; 1.359<br/>gini = 0.006<br/>samples = 1425<br/>value = [1421, 2, 0, 2]<br/>class = l>, fillcolor="#e5813a"] ;
520 -> 521 ;
522 [label=<frequency &le; 0.723<br/>gini = 0.003<br/>samples = 1292<br/>value = [1290, 2, 0, 0]<br/>class = l>, fillcolor="#e58139"] ;
521 -> 522 ;
523 [label=<gini = 0.0<br/>samples = 1011<br/>value = [1011, 0, 0, 0]<br/>class = l>, fillcolor="#e58139"] ;
522 -> 523 ;
524 [label=<RSSI &le; -0.288<br/>gini = 0.014<br/>samples = 281<br/>value = [279, 2, 0, 0]<br/>class = l>, fillcolor="#e5823a"] ;
522 -> 524 ;
525 [label=<gini = 0.0<br/>samples = 197<br/>value = [197, 0, 0, 0]<br/>class = l>, fillcolor="#e58139"] ;
524 -> 525 ;
526 [label=<vertical acc &le; 1.285<br/>gini = 0.046<br/>samples = 84<br/>value = [82, 2, 0, 0]<br/>class = l>, fillcolor="#e6843e"] ;
524 -> 526 ;
527 [label=<gini = 0.0<br/>samples = 60<br/>value = [60, 0, 0, 0]<br/>class = l>, fillcolor="#e58139"] ;
526 -> 527 ;
528 [label=<lateral acc &le; 0.374<br/>gini = 0.153<br/>samples = 24<br/>value = [22, 2, 0, 0]<br/>class = l>, fillcolor="#e78c4b"] ;
526 -> 528 ;
529 [label=<lateral acc &le; 0.276<br/>gini = 0.5<br/>samples = 4<br/>value = [2, 2, 0, 0]<br/>class = l>, fillcolor="#ffffff"] ;
528 -> 529 ;
530 [label=<gini = 0.0<br/>samples = 2<br/>value = [2, 0, 0, 0]<br/>class = l>, fillcolor="#e58139"] ;
529 -> 530 ;
531 [label=<gini = 0.0<br/>samples = 2<br/>value = [0, 2, 0, 0]<br/>class = a>, fillcolor="#47e539"] ;
529 -> 531 ;
532 [label=<gini = 0.0<br/>samples = 20<br/>value = [20, 0, 0, 0]<br/>class = l>, fillcolor="#e58139"] ;
528 -> 532 ;
533 [label=<frontal acc &le; -1.173<br/>gini = 0.03<br/>samples = 133<br/>value = [131, 0, 0, 2]<br/>class = l>, fillcolor="#e5833c"] ;
521 -> 533 ;
534 [label=<gini = 0.0<br/>samples = 125<br/>value = [125, 0, 0, 0]<br/>class = l>, fillcolor="#e58139"] ;
533 -> 534 ;
535 [label=<phase &le; -0.502<br/>gini = 0.375<br/>samples = 8<br/>value = [6, 0, 0, 2]<br/>class = l>, fillcolor="#eeab7b"] ;
533 -> 535 ;
536 [label=<gini = 0.0<br/>samples = 6<br/>value = [6, 0, 0, 0]<br/>class = l>, fillcolor="#e58139"] ;
535 -> 536 ;
537 [label=<gini = 0.0<br/>samples = 2<br/>value = [0, 0, 0, 2]<br/>class = e>, fillcolor="#d739e5"] ;
535 -> 537 ;
538 [label=<phase &le; 1.31<br/>gini = 0.057<br/>samples = 34<br/>value = [33, 1, 0, 0]<br/>class = l>, fillcolor="#e6853f"] ;
520 -> 538 ;
539 [label=<gini = 0.0<br/>samples = 1<br/>value = [0, 1, 0, 0]<br/>class = a>, fillcolor="#47e539"] ;
538 -> 539 ;
540 [label=<gini = 0.0<br/>samples = 33<br/>value = [33, 0, 0, 0]<br/>class = l>, fillcolor="#e58139"] ;
538 -> 540 ;
541 [label=<frequency &le; 0.133<br/>gini = 0.061<br/>samples = 579<br/>value = [561, 11, 0, 7]<br/>class = l>, fillcolor="#e6853f"] ;
475 -> 541 ;
542 [label=<frontal acc &le; -0.865<br/>gini = 0.012<br/>samples = 334<br/>value = [332, 1, 0, 1]<br/>class = l>, fillcolor="#e5823a"] ;
541 -> 542 ;
543 [label=<lateral acc &le; -0.472<br/>gini = 0.006<br/>samples = 333<br/>value = [332, 1, 0, 0]<br/>class = l>, fillcolor="#e5813a"] ;
542 -> 543 ;
544 [label=<frontal acc &le; -1.335<br/>gini = 0.278<br/>samples = 6<br/>value = [5, 1, 0, 0]<br/>class = l>, fillcolor="#ea9a61"] ;
543 -> 544 ;
545 [label=<gini = 0.0<br/>samples = 1<br/>value = [0, 1, 0, 0]<br/>class = a>, fillcolor="#47e539"] ;
544 -> 545 ;
546 [label=<gini = 0.0<br/>samples = 5<br/>value = [5, 0, 0, 0]<br/>class = l>, fillcolor="#e58139"] ;
544 -> 546 ;
547 [label=<gini = 0.0<br/>samples = 327<br/>value = [327, 0, 0, 0]<br/>class = l>, fillcolor="#e58139"] ;
543 -> 547 ;
548 [label=<gini = 0.0<br/>samples = 1<br/>value = [0, 0, 0, 1]<br/>class = e>, fillcolor="#d739e5"] ;
542 -> 548 ;
549 [label=<lateral acc &le; 0.829<br/>gini = 0.124<br/>samples = 245<br/>value = [229, 10, 0, 6]<br/>class = l>, fillcolor="#e78a46"] ;
541 -> 549 ;
550 [label=<vertical acc &le; 1.334<br/>gini = 0.098<br/>samples = 216<br/>value = [205, 5, 0, 6]<br/>class = l>, fillcolor="#e68843"] ;
549 -> 550 ;
551 [label=<vertical acc &le; 1.285<br/>gini = 0.139<br/>samples = 149<br/>value = [138, 5, 0, 6]<br/>class = l>, fillcolor="#e78b48"] ;
550 -> 551 ;
552 [label=<frequency &le; 0.428<br/>gini = 0.061<br/>samples = 96<br/>value = [93, 1, 0, 2]<br/>class = l>, fillcolor="#e6853f"] ;
551 -> 552 ;
553 [label=<frontal acc &le; -1.07<br/>gini = 0.26<br/>samples = 13<br/>value = [11, 0, 0, 2]<br/>class = l>, fillcolor="#ea985d"] ;
552 -> 553 ;
554 [label=<gini = 0.0<br/>samples = 10<br/>value = [10, 0, 0, 0]<br/>class = l>, fillcolor="#e58139"] ;
553 -> 554 ;
555 [label=<phase &le; -0.382<br/>gini = 0.444<br/>samples = 3<br/>value = [1, 0, 0, 2]<br/>class = e>, fillcolor="#eb9cf2"] ;
553 -> 555 ;
556 [label=<gini = 0.0<br/>samples = 1<br/>value = [1, 0, 0, 0]<br/>class = l>, fillcolor="#e58139"] ;
555 -> 556 ;
557 [label=<gini = 0.0<br/>samples = 2<br/>value = [0, 0, 0, 2]<br/>class = e>, fillcolor="#d739e5"] ;
555 -> 557 ;
558 [label=<phase &le; 1.062<br/>gini = 0.024<br/>samples = 83<br/>value = [82, 1, 0, 0]<br/>class = l>, fillcolor="#e5833b"] ;
552 -> 558 ;
559 [label=<gini = 0.0<br/>samples = 79<br/>value = [79, 0, 0, 0]<br/>class = l>, fillcolor="#e58139"] ;
558 -> 559 ;
560 [label=<frequency &le; 1.018<br/>gini = 0.375<br/>samples = 4<br/>value = [3, 1, 0, 0]<br/>class = l>, fillcolor="#eeab7b"] ;
558 -> 560 ;
561 [label=<gini = 0.0<br/>samples = 3<br/>value = [3, 0, 0, 0]<br/>class = l>, fillcolor="#e58139"] ;
560 -> 561 ;
562 [label=<gini = 0.0<br/>samples = 1<br/>value = [0, 1, 0, 0]<br/>class = a>, fillcolor="#47e539"] ;
560 -> 562 ;
563 [label=<lateral acc &le; -0.439<br/>gini = 0.268<br/>samples = 53<br/>value = [45, 4, 0, 4]<br/>class = l>, fillcolor="#e99659"] ;
551 -> 563 ;
564 [label=<gini = 0.0<br/>samples = 1<br/>value = [0, 1, 0, 0]<br/>class = a>, fillcolor="#47e539"] ;
563 -> 564 ;
565 [label=<phase &le; -1.208<br/>gini = 0.242<br/>samples = 52<br/>value = [45, 3, 0, 4]<br/>class = l>, fillcolor="#e99356"] ;
563 -> 565 ;
566 [label=<lateral acc &le; 0.374<br/>gini = 0.571<br/>samples = 7<br/>value = [4, 1, 0, 2]<br/>class = l>, fillcolor="#f5cdb0"] ;
565 -> 566 ;
567 [label=<phase &le; -1.279<br/>gini = 0.5<br/>samples = 2<br/>value = [0, 1, 0, 1]<br/>class = a>, fillcolor="#ffffff"] ;
566 -> 567 ;
568 [label=<gini = 0.0<br/>samples = 1<br/>value = [0, 1, 0, 0]<br/>class = a>, fillcolor="#47e539"] ;
567 -> 568 ;
569 [label=<gini = 0.0<br/>samples = 1<br/>value = [0, 0, 0, 1]<br/>class = e>, fillcolor="#d739e5"] ;
567 -> 569 ;
570 [label=<frontal acc &le; -1.276<br/>gini = 0.32<br/>samples = 5<br/>value = [4, 0, 0, 1]<br/>class = l>, fillcolor="#eca06a"] ;
566 -> 570 ;
571 [label=<lateral acc &le; 0.699<br/>gini = 0.444<br/>samples = 3<br/>value = [2, 0, 0, 1]<br/>class = l>, fillcolor="#f2c09c"] ;
570 -> 571 ;
572 [label=<gini = 0.0<br/>samples = 1<br/>value = [0, 0, 0, 1]<br/>class = e>, fillcolor="#d739e5"] ;
571 -> 572 ;
573 [label=<gini = 0.0<br/>samples = 2<br/>value = [2, 0, 0, 0]<br/>class = l>, fillcolor="#e58139"] ;
571 -> 573 ;
574 [label=<gini = 0.0<br/>samples = 2<br/>value = [2, 0, 0, 0]<br/>class = l>, fillcolor="#e58139"] ;
570 -> 574 ;
575 [label=<frontal acc &le; -1.085<br/>gini = 0.166<br/>samples = 45<br/>value = [41, 2, 0, 2]<br/>class = l>, fillcolor="#e78d4b"] ;
565 -> 575 ;
576 [label=<lateral acc &le; 0.407<br/>gini = 0.129<br/>samples = 44<br/>value = [41, 2, 0, 1]<br/>class = l>, fillcolor="#e78a47"] ;
575 -> 576 ;
577 [label=<gini = 0.0<br/>samples = 26<br/>value = [26, 0, 0, 0]<br/>class = l>, fillcolor="#e58139"] ;
576 -> 577 ;
578 [label=<lateral acc &le; 0.504<br/>gini = 0.29<br/>samples = 18<br/>value = [15, 2, 0, 1]<br/>class = l>, fillcolor="#ea995e"] ;
576 -> 578 ;
579 [label=<frequency &le; 0.576<br/>gini = 0.5<br/>samples = 2<br/>value = [1, 1, 0, 0]<br/>class = l>, fillcolor="#ffffff"] ;
578 -> 579 ;
580 [label=<gini = 0.0<br/>samples = 1<br/>value = [1, 0, 0, 0]<br/>class = l>, fillcolor="#e58139"] ;
579 -> 580 ;
581 [label=<gini = 0.0<br/>samples = 1<br/>value = [0, 1, 0, 0]<br/>class = a>, fillcolor="#47e539"] ;
579 -> 581 ;
582 [label=<frequency &le; 1.018<br/>gini = 0.227<br/>samples = 16<br/>value = [14, 1, 0, 1]<br/>class = l>, fillcolor="#e89253"] ;
578 -> 582 ;
583 [label=<frequency &le; 0.428<br/>gini = 0.142<br/>samples = 13<br/>value = [12, 0, 0, 1]<br/>class = l>, fillcolor="#e78c49"] ;
582 -> 583 ;
584 [label=<frontal acc &le; -1.291<br/>gini = 0.32<br/>samples = 5<br/>value = [4, 0, 0, 1]<br/>class = l>, fillcolor="#eca06a"] ;
583 -> 584 ;
585 [label=<lateral acc &le; 0.602<br/>gini = 0.5<br/>samples = 2<br/>value = [1, 0, 0, 1]<br/>class = l>, fillcolor="#ffffff"] ;
584 -> 585 ;
586 [label=<gini = 0.0<br/>samples = 1<br/>value = [1, 0, 0, 0]<br/>class = l>, fillcolor="#e58139"] ;
585 -> 586 ;
587 [label=<gini = 0.0<br/>samples = 1<br/>value = [0, 0, 0, 1]<br/>class = e>, fillcolor="#d739e5"] ;
585 -> 587 ;
588 [label=<gini = 0.0<br/>samples = 3<br/>value = [3, 0, 0, 0]<br/>class = l>, fillcolor="#e58139"] ;
584 -> 588 ;
589 [label=<gini = 0.0<br/>samples = 8<br/>value = [8, 0, 0, 0]<br/>class = l>, fillcolor="#e58139"] ;
583 -> 589 ;
590 [label=<frontal acc &le; -1.291<br/>gini = 0.444<br/>samples = 3<br/>value = [2, 1, 0, 0]<br/>class = l>, fillcolor="#f2c09c"] ;
582 -> 590 ;
591 [label=<gini = 0.0<br/>samples = 2<br/>value = [2, 0, 0, 0]<br/>class = l>, fillcolor="#e58139"] ;
590 -> 591 ;
592 [label=<gini = 0.0<br/>samples = 1<br/>value = [0, 1, 0, 0]<br/>class = a>, fillcolor="#47e539"] ;
590 -> 592 ;
593 [label=<gini = 0.0<br/>samples = 1<br/>value = [0, 0, 0, 1]<br/>class = e>, fillcolor="#d739e5"] ;
575 -> 593 ;
594 [label=<gini = 0.0<br/>samples = 67<br/>value = [67, 0, 0, 0]<br/>class = l>, fillcolor="#e58139"] ;
550 -> 594 ;
595 [label=<frontal acc &le; -1.54<br/>gini = 0.285<br/>samples = 29<br/>value = [24, 5, 0, 0]<br/>class = l>, fillcolor="#ea9b62"] ;
549 -> 595 ;
596 [label=<gini = 0.0<br/>samples = 1<br/>value = [0, 1, 0, 0]<br/>class = a>, fillcolor="#47e539"] ;
595 -> 596 ;
597 [label=<phase &le; -1.042<br/>gini = 0.245<br/>samples = 28<br/>value = [24, 4, 0, 0]<br/>class = l>, fillcolor="#e9965a"] ;
595 -> 597 ;
598 [label=<phase &le; -1.226<br/>gini = 0.444<br/>samples = 6<br/>value = [4, 2, 0, 0]<br/>class = l>, fillcolor="#f2c09c"] ;
597 -> 598 ;
599 [label=<gini = 0.0<br/>samples = 4<br/>value = [4, 0, 0, 0]<br/>class = l>, fillcolor="#e58139"] ;
598 -> 599 ;
600 [label=<gini = 0.0<br/>samples = 2<br/>value = [0, 2, 0, 0]<br/>class = a>, fillcolor="#47e539"] ;
598 -> 600 ;
601 [label=<frontal acc &le; -1.305<br/>gini = 0.165<br/>samples = 22<br/>value = [20, 2, 0, 0]<br/>class = l>, fillcolor="#e88e4d"] ;
597 -> 601 ;
602 [label=<frontal acc &le; -1.335<br/>gini = 0.278<br/>samples = 12<br/>value = [10, 2, 0, 0]<br/>class = l>, fillcolor="#ea9a61"] ;
601 -> 602 ;
603 [label=<lateral acc &le; 1.025<br/>gini = 0.18<br/>samples = 10<br/>value = [9, 1, 0, 0]<br/>class = l>, fillcolor="#e88f4f"] ;
602 -> 603 ;
604 [label=<frequency &le; 0.723<br/>gini = 0.444<br/>samples = 3<br/>value = [2, 1, 0, 0]<br/>class = l>, fillcolor="#f2c09c"] ;
603 -> 604 ;
605 [label=<gini = 0.0<br/>samples = 1<br/>value = [0, 1, 0, 0]<br/>class = a>, fillcolor="#47e539"] ;
604 -> 605 ;
606 [label=<gini = 0.0<br/>samples = 2<br/>value = [2, 0, 0, 0]<br/>class = l>, fillcolor="#e58139"] ;
604 -> 606 ;
607 [label=<gini = 0.0<br/>samples = 7<br/>value = [7, 0, 0, 0]<br/>class = l>, fillcolor="#e58139"] ;
603 -> 607 ;
608 [label=<frequency &le; 1.018<br/>gini = 0.5<br/>samples = 2<br/>value = [1, 1, 0, 0]<br/>class = l>, fillcolor="#ffffff"] ;
602 -> 608 ;
609 [label=<gini = 0.0<br/>samples = 1<br/>value = [1, 0, 0, 0]<br/>class = l>, fillcolor="#e58139"] ;
608 -> 609 ;
610 [label=<gini = 0.0<br/>samples = 1<br/>value = [0, 1, 0, 0]<br/>class = a>, fillcolor="#47e539"] ;
608 -> 610 ;
611 [label=<gini = 0.0<br/>samples = 10<br/>value = [10, 0, 0, 0]<br/>class = l>, fillcolor="#e58139"] ;
601 -> 611 ;
612 [label=<lateral acc &le; 0.764<br/>gini = 0.118<br/>samples = 469<br/>value = [440, 20, 0, 9]<br/>class = l>, fillcolor="#e78946"] ;
464 -> 612 ;
613 [label=<frontal acc &le; -0.982<br/>gini = 0.097<br/>samples = 434<br/>value = [412, 14, 0, 8]<br/>class = l>, fillcolor="#e68843"] ;
612 -> 613 ;
614 [label=<RSSI &le; -0.181<br/>gini = 0.075<br/>samples = 365<br/>value = [351, 7, 0, 7]<br/>class = l>, fillcolor="#e68641"] ;
613 -> 614 ;
615 [label=<frontal acc &le; -1.041<br/>gini = 0.029<br/>samples = 276<br/>value = [272, 0, 0, 4]<br/>class = l>, fillcolor="#e5833c"] ;
614 -> 615 ;
616 [label=<phase &le; -1.252<br/>gini = 0.022<br/>samples = 270<br/>value = [267, 0, 0, 3]<br/>class = l>, fillcolor="#e5823b"] ;
615 -> 616 ;
617 [label=<frontal acc &le; -1.144<br/>gini = 0.133<br/>samples = 14<br/>value = [13, 0, 0, 1]<br/>class = l>, fillcolor="#e78b48"] ;
616 -> 617 ;
618 [label=<gini = 0.0<br/>samples = 13<br/>value = [13, 0, 0, 0]<br/>class = l>, fillcolor="#e58139"] ;
617 -> 618 ;
619 [label=<gini = 0.0<br/>samples = 1<br/>value = [0, 0, 0, 1]<br/>class = e>, fillcolor="#d739e5"] ;
617 -> 619 ;
620 [label=<phase &le; 1.142<br/>gini = 0.016<br/>samples = 256<br/>value = [254, 0, 0, 2]<br/>class = l>, fillcolor="#e5823b"] ;
616 -> 620 ;
621 [label=<phase &le; -0.966<br/>gini = 0.008<br/>samples = 236<br/>value = [235, 0, 0, 1]<br/>class = l>, fillcolor="#e5823a"] ;
620 -> 621 ;
622 [label=<phase &le; -0.979<br/>gini = 0.034<br/>samples = 58<br/>value = [57, 0, 0, 1]<br/>class = l>, fillcolor="#e5833c"] ;
621 -> 622 ;
623 [label=<gini = 0.0<br/>samples = 57<br/>value = [57, 0, 0, 0]<br/>class = l>, fillcolor="#e58139"] ;
622 -> 623 ;
624 [label=<gini = 0.0<br/>samples = 1<br/>value = [0, 0, 0, 1]<br/>class = e>, fillcolor="#d739e5"] ;
622 -> 624 ;
625 [label=<gini = 0.0<br/>samples = 178<br/>value = [178, 0, 0, 0]<br/>class = l>, fillcolor="#e58139"] ;
621 -> 625 ;
626 [label=<lateral acc &le; -0.244<br/>gini = 0.095<br/>samples = 20<br/>value = [19, 0, 0, 1]<br/>class = l>, fillcolor="#e68843"] ;
620 -> 626 ;
627 [label=<gini = 0.0<br/>samples = 1<br/>value = [0, 0, 0, 1]<br/>class = e>, fillcolor="#d739e5"] ;
626 -> 627 ;
628 [label=<gini = 0.0<br/>samples = 19<br/>value = [19, 0, 0, 0]<br/>class = l>, fillcolor="#e58139"] ;
626 -> 628 ;
629 [label=<vertical acc &le; 1.285<br/>gini = 0.278<br/>samples = 6<br/>value = [5, 0, 0, 1]<br/>class = l>, fillcolor="#ea9a61"] ;
615 -> 629 ;
630 [label=<gini = 0.0<br/>samples = 5<br/>value = [5, 0, 0, 0]<br/>class = l>, fillcolor="#e58139"] ;
629 -> 630 ;
631 [label=<gini = 0.0<br/>samples = 1<br/>value = [0, 0, 0, 1]<br/>class = e>, fillcolor="#d739e5"] ;
629 -> 631 ;
632 [label=<lateral acc &le; 0.309<br/>gini = 0.205<br/>samples = 89<br/>value = [79, 7, 0, 3]<br/>class = l>, fillcolor="#e89051"] ;
614 -> 632 ;
633 [label=<frequency &le; 1.608<br/>gini = 0.081<br/>samples = 71<br/>value = [68, 0, 0, 3]<br/>class = l>, fillcolor="#e68742"] ;
632 -> 633 ;
634 [label=<frontal acc &le; -1.1<br/>gini = 0.175<br/>samples = 31<br/>value = [28, 0, 0, 3]<br/>class = l>, fillcolor="#e88e4e"] ;
633 -> 634 ;
635 [label=<lateral acc &le; -0.342<br/>gini = 0.124<br/>samples = 30<br/>value = [28, 0, 0, 2]<br/>class = l>, fillcolor="#e78a47"] ;
634 -> 635 ;
636 [label=<RSSI &le; -0.075<br/>gini = 0.5<br/>samples = 2<br/>value = [1, 0, 0, 1]<br/>class = l>, fillcolor="#ffffff"] ;
635 -> 636 ;
637 [label=<gini = 0.0<br/>samples = 1<br/>value = [1, 0, 0, 0]<br/>class = l>, fillcolor="#e58139"] ;
636 -> 637 ;
638 [label=<gini = 0.0<br/>samples = 1<br/>value = [0, 0, 0, 1]<br/>class = e>, fillcolor="#d739e5"] ;
636 -> 638 ;
639 [label=<frontal acc &le; -1.291<br/>gini = 0.069<br/>samples = 28<br/>value = [27, 0, 0, 1]<br/>class = l>, fillcolor="#e68640"] ;
635 -> 639 ;
640 [label=<gini = 0.0<br/>samples = 19<br/>value = [19, 0, 0, 0]<br/>class = l>, fillcolor="#e58139"] ;
639 -> 640 ;
641 [label=<RSSI &le; -0.075<br/>gini = 0.198<br/>samples = 9<br/>value = [8, 0, 0, 1]<br/>class = l>, fillcolor="#e89152"] ;
639 -> 641 ;
642 [label=<gini = 0.0<br/>samples = 1<br/>value = [0, 0, 0, 1]<br/>class = e>, fillcolor="#d739e5"] ;
641 -> 642 ;
643 [label=<gini = 0.0<br/>samples = 8<br/>value = [8, 0, 0, 0]<br/>class = l>, fillcolor="#e58139"] ;
641 -> 643 ;
644 [label=<gini = 0.0<br/>samples = 1<br/>value = [0, 0, 0, 1]<br/>class = e>, fillcolor="#d739e5"] ;
634 -> 644 ;
645 [label=<gini = 0.0<br/>samples = 40<br/>value = [40, 0, 0, 0]<br/>class = l>, fillcolor="#e58139"] ;
633 -> 645 ;
646 [label=<phase &le; -0.89<br/>gini = 0.475<br/>samples = 18<br/>value = [11, 7, 0, 0]<br/>class = l>, fillcolor="#f6d1b7"] ;
632 -> 646 ;
647 [label=<frequency &le; 1.608<br/>gini = 0.375<br/>samples = 8<br/>value = [2, 6, 0, 0]<br/>class = a>, fillcolor="#84ee7b"] ;
646 -> 647 ;
648 [label=<gini = 0.0<br/>samples = 6<br/>value = [0, 6, 0, 0]<br/>class = a>, fillcolor="#47e539"] ;
647 -> 648 ;
649 [label=<gini = 0.0<br/>samples = 2<br/>value = [2, 0, 0, 0]<br/>class = l>, fillcolor="#e58139"] ;
647 -> 649 ;
650 [label=<frontal acc &le; -1.526<br/>gini = 0.18<br/>samples = 10<br/>value = [9, 1, 0, 0]<br/>class = l>, fillcolor="#e88f4f"] ;
646 -> 650 ;
651 [label=<gini = 0.0<br/>samples = 1<br/>value = [0, 1, 0, 0]<br/>class = a>, fillcolor="#47e539"] ;
650 -> 651 ;
652 [label=<gini = 0.0<br/>samples = 9<br/>value = [9, 0, 0, 0]<br/>class = l>, fillcolor="#e58139"] ;
650 -> 652 ;
653 [label=<vertical acc &le; 1.273<br/>gini = 0.208<br/>samples = 69<br/>value = [61, 7, 0, 1]<br/>class = l>, fillcolor="#e89153"] ;
613 -> 653 ;
654 [label=<phase &le; 0.414<br/>gini = 0.163<br/>samples = 67<br/>value = [61, 6, 0, 0]<br/>class = l>, fillcolor="#e88d4c"] ;
653 -> 654 ;
655 [label=<gini = 0.0<br/>samples = 45<br/>value = [45, 0, 0, 0]<br/>class = l>, fillcolor="#e58139"] ;
654 -> 655 ;
656 [label=<phase &le; 0.488<br/>gini = 0.397<br/>samples = 22<br/>value = [16, 6, 0, 0]<br/>class = l>, fillcolor="#efb083"] ;
654 -> 656 ;
657 [label=<gini = 0.0<br/>samples = 6<br/>value = [0, 6, 0, 0]<br/>class = a>, fillcolor="#47e539"] ;
656 -> 657 ;
658 [label=<gini = 0.0<br/>samples = 16<br/>value = [16, 0, 0, 0]<br/>class = l>, fillcolor="#e58139"] ;
656 -> 658 ;
659 [label=<phase &le; 0.794<br/>gini = 0.5<br/>samples = 2<br/>value = [0, 1, 0, 1]<br/>class = a>, fillcolor="#ffffff"] ;
653 -> 659 ;
660 [label=<gini = 0.0<br/>samples = 1<br/>value = [0, 1, 0, 0]<br/>class = a>, fillcolor="#47e539"] ;
659 -> 660 ;
661 [label=<gini = 0.0<br/>samples = 1<br/>value = [0, 0, 0, 1]<br/>class = e>, fillcolor="#d739e5"] ;
659 -> 661 ;
662 [label=<frontal acc &le; -1.599<br/>gini = 0.33<br/>samples = 35<br/>value = [28, 6, 0, 1]<br/>class = l>, fillcolor="#eb9f69"] ;
612 -> 662 ;
663 [label=<gini = 0.0<br/>samples = 2<br/>value = [0, 2, 0, 0]<br/>class = a>, fillcolor="#47e539"] ;
662 -> 663 ;
664 [label=<frontal acc &le; -1.012<br/>gini = 0.264<br/>samples = 33<br/>value = [28, 4, 0, 1]<br/>class = l>, fillcolor="#e9975b"] ;
662 -> 664 ;
665 [label=<frontal acc &le; -1.482<br/>gini = 0.225<br/>samples = 32<br/>value = [28, 3, 0, 1]<br/>class = l>, fillcolor="#e99254"] ;
664 -> 665 ;
666 [label=<RSSI &le; -0.181<br/>gini = 0.48<br/>samples = 5<br/>value = [3, 2, 0, 0]<br/>class = l>, fillcolor="#f6d5bd"] ;
665 -> 666 ;
667 [label=<gini = 0.0<br/>samples = 3<br/>value = [3, 0, 0, 0]<br/>class = l>, fillcolor="#e58139"] ;
666 -> 667 ;
668 [label=<gini = 0.0<br/>samples = 2<br/>value = [0, 2, 0, 0]<br/>class = a>, fillcolor="#47e539"] ;
666 -> 668 ;
669 [label=<phase &le; 1.218<br/>gini = 0.14<br/>samples = 27<br/>value = [25, 1, 0, 1]<br/>class = l>, fillcolor="#e78b48"] ;
665 -> 669 ;
670 [label=<RSSI &le; -0.075<br/>gini = 0.077<br/>samples = 25<br/>value = [24, 0, 0, 1]<br/>class = l>, fillcolor="#e68641"] ;
669 -> 670 ;
671 [label=<gini = 0.0<br/>samples = 21<br/>value = [21, 0, 0, 0]<br/>class = l>, fillcolor="#e58139"] ;
670 -> 671 ;
672 [label=<lateral acc &le; 0.862<br/>gini = 0.375<br/>samples = 4<br/>value = [3, 0, 0, 1]<br/>class = l>, fillcolor="#eeab7b"] ;
670 -> 672 ;
673 [label=<gini = 0.0<br/>samples = 1<br/>value = [0, 0, 0, 1]<br/>class = e>, fillcolor="#d739e5"] ;
672 -> 673 ;
674 [label=<gini = 0.0<br/>samples = 3<br/>value = [3, 0, 0, 0]<br/>class = l>, fillcolor="#e58139"] ;
672 -> 674 ;
675 [label=<vertical acc &le; 1.273<br/>gini = 0.5<br/>samples = 2<br/>value = [1, 1, 0, 0]<br/>class = l>, fillcolor="#ffffff"] ;
669 -> 675 ;
676 [label=<gini = 0.0<br/>samples = 1<br/>value = [0, 1, 0, 0]<br/>class = a>, fillcolor="#47e539"] ;
675 -> 676 ;
677 [label=<gini = 0.0<br/>samples = 1<br/>value = [1, 0, 0, 0]<br/>class = l>, fillcolor="#e58139"] ;
675 -> 677 ;
678 [label=<gini = 0.0<br/>samples = 1<br/>value = [0, 1, 0, 0]<br/>class = a>, fillcolor="#47e539"] ;
664 -> 678 ;
679 [label=<lateral acc &le; -0.049<br/>gini = 0.395<br/>samples = 40<br/>value = [30, 8, 0, 2]<br/>class = l>, fillcolor="#eda877"] ;
463 -> 679 ;
680 [label=<RSSI &le; -0.181<br/>gini = 0.49<br/>samples = 14<br/>value = [6, 8, 0, 0]<br/>class = a>, fillcolor="#d1f8ce"] ;
679 -> 680 ;
681 [label=<frequency &le; 1.608<br/>gini = 0.32<br/>samples = 5<br/>value = [4, 1, 0, 0]<br/>class = l>, fillcolor="#eca06a"] ;
680 -> 681 ;
682 [label=<gini = 0.0<br/>samples = 4<br/>value = [4, 0, 0, 0]<br/>class = l>, fillcolor="#e58139"] ;
681 -> 682 ;
683 [label=<gini = 0.0<br/>samples = 1<br/>value = [0, 1, 0, 0]<br/>class = a>, fillcolor="#47e539"] ;
681 -> 683 ;
684 [label=<phase &le; 1.131<br/>gini = 0.346<br/>samples = 9<br/>value = [2, 7, 0, 0]<br/>class = a>, fillcolor="#7cec72"] ;
680 -> 684 ;
685 [label=<phase &le; -1.215<br/>gini = 0.219<br/>samples = 8<br/>value = [1, 7, 0, 0]<br/>class = a>, fillcolor="#61e955"] ;
684 -> 685 ;
686 [label=<frequency &le; -0.015<br/>gini = 0.5<br/>samples = 2<br/>value = [1, 1, 0, 0]<br/>class = l>, fillcolor="#ffffff"] ;
685 -> 686 ;
687 [label=<gini = 0.0<br/>samples = 1<br/>value = [0, 1, 0, 0]<br/>class = a>, fillcolor="#47e539"] ;
686 -> 687 ;
688 [label=<gini = 0.0<br/>samples = 1<br/>value = [1, 0, 0, 0]<br/>class = l>, fillcolor="#e58139"] ;
686 -> 688 ;
689 [label=<gini = 0.0<br/>samples = 6<br/>value = [0, 6, 0, 0]<br/>class = a>, fillcolor="#47e539"] ;
685 -> 689 ;
690 [label=<gini = 0.0<br/>samples = 1<br/>value = [1, 0, 0, 0]<br/>class = l>, fillcolor="#e58139"] ;
684 -> 690 ;
691 [label=<vertical acc &le; 1.285<br/>gini = 0.142<br/>samples = 26<br/>value = [24, 0, 0, 2]<br/>class = l>, fillcolor="#e78c49"] ;
679 -> 691 ;
692 [label=<frequency &le; -1.047<br/>gini = 0.077<br/>samples = 25<br/>value = [24, 0, 0, 1]<br/>class = l>, fillcolor="#e68641"] ;
691 -> 692 ;
693 [label=<phase &le; 0.361<br/>gini = 0.375<br/>samples = 4<br/>value = [3, 0, 0, 1]<br/>class = l>, fillcolor="#eeab7b"] ;
692 -> 693 ;
694 [label=<gini = 0.0<br/>samples = 3<br/>value = [3, 0, 0, 0]<br/>class = l>, fillcolor="#e58139"] ;
693 -> 694 ;
695 [label=<gini = 0.0<br/>samples = 1<br/>value = [0, 0, 0, 1]<br/>class = e>, fillcolor="#d739e5"] ;
693 -> 695 ;
696 [label=<gini = 0.0<br/>samples = 21<br/>value = [21, 0, 0, 0]<br/>class = l>, fillcolor="#e58139"] ;
692 -> 696 ;
697 [label=<gini = 0.0<br/>samples = 1<br/>value = [0, 0, 0, 1]<br/>class = e>, fillcolor="#d739e5"] ;
691 -> 697 ;
698 [label=<lateral acc &le; 0.634<br/>gini = 0.307<br/>samples = 6025<br/>value = [4938, 857, 0, 230]<br/>class = l>, fillcolor="#ea9c63"] ;
82 -> 698 ;
699 [label=<vertical acc &le; 1.261<br/>gini = 0.236<br/>samples = 4510<br/>value = [3913, 441, 0, 156]<br/>class = l>, fillcolor="#e99356"] ;
698 -> 699 ;
700 [label=<lateral acc &le; -0.016<br/>gini = 0.396<br/>samples = 1367<br/>value = [1022, 285, 0, 60]<br/>class = l>, fillcolor="#eda978"] ;
699 -> 700 ;
701 [label=<lateral acc &le; -0.537<br/>gini = 0.284<br/>samples = 869<br/>value = [724, 127, 0, 18]<br/>class = l>, fillcolor="#ea9a60"] ;
700 -> 701 ;
702 [label=<RSSI &le; 0.456<br/>gini = 0.469<br/>samples = 59<br/>value = [18, 39, 0, 2]<br/>class = a>, fillcolor="#a1f29a"] ;
701 -> 702 ;
703 [label=<phase &le; 1.217<br/>gini = 0.254<br/>samples = 21<br/>value = [18, 1, 0, 2]<br/>class = l>, fillcolor="#e99558"] ;
702 -> 703 ;
704 [label=<lateral acc &le; -0.634<br/>gini = 0.194<br/>samples = 19<br/>value = [17, 1, 0, 1]<br/>class = l>, fillcolor="#e88f4f"] ;
703 -> 704 ;
705 [label=<gini = 0.0<br/>samples = 10<br/>value = [10, 0, 0, 0]<br/>class = l>, fillcolor="#e58139"] ;
704 -> 705 ;
706 [label=<vertical acc &le; 1.187<br/>gini = 0.37<br/>samples = 9<br/>value = [7, 1, 0, 1]<br/>class = l>, fillcolor="#eca06a"] ;
704 -> 706 ;
707 [label=<gini = 0.0<br/>samples = 1<br/>value = [0, 1, 0, 0]<br/>class = a>, fillcolor="#47e539"] ;
706 -> 707 ;
708 [label=<phase &le; -0.812<br/>gini = 0.219<br/>samples = 8<br/>value = [7, 0, 0, 1]<br/>class = l>, fillcolor="#e99355"] ;
706 -> 708 ;
709 [label=<frontal acc &le; -0.938<br/>gini = 0.5<br/>samples = 2<br/>value = [1, 0, 0, 1]<br/>class = l>, fillcolor="#ffffff"] ;
708 -> 709 ;
710 [label=<gini = 0.0<br/>samples = 1<br/>value = [1, 0, 0, 0]<br/>class = l>, fillcolor="#e58139"] ;
709 -> 710 ;
711 [label=<gini = 0.0<br/>samples = 1<br/>value = [0, 0, 0, 1]<br/>class = e>, fillcolor="#d739e5"] ;
709 -> 711 ;
712 [label=<gini = 0.0<br/>samples = 6<br/>value = [6, 0, 0, 0]<br/>class = l>, fillcolor="#e58139"] ;
708 -> 712 ;
713 [label=<frontal acc &le; -1.114<br/>gini = 0.5<br/>samples = 2<br/>value = [1, 0, 0, 1]<br/>class = l>, fillcolor="#ffffff"] ;
703 -> 713 ;
714 [label=<gini = 0.0<br/>samples = 1<br/>value = [0, 0, 0, 1]<br/>class = e>, fillcolor="#d739e5"] ;
713 -> 714 ;
715 [label=<gini = 0.0<br/>samples = 1<br/>value = [1, 0, 0, 0]<br/>class = l>, fillcolor="#e58139"] ;
713 -> 715 ;
716 [label=<gini = 0.0<br/>samples = 38<br/>value = [0, 38, 0, 0]<br/>class = a>, fillcolor="#47e539"] ;
702 -> 716 ;
717 [label=<phase &le; 0.796<br/>gini = 0.228<br/>samples = 810<br/>value = [706, 88, 0, 16]<br/>class = l>, fillcolor="#e99356"] ;
701 -> 717 ;
718 [label=<frontal acc &le; -0.894<br/>gini = 0.133<br/>samples = 481<br/>value = [447, 29, 0, 5]<br/>class = l>, fillcolor="#e78a48"] ;
717 -> 718 ;
719 [label=<frontal acc &le; -1.981<br/>gini = 0.064<br/>samples = 368<br/>value = [356, 7, 0, 5]<br/>class = l>, fillcolor="#e68540"] ;
718 -> 719 ;
720 [label=<frequency &le; -0.9<br/>gini = 0.611<br/>samples = 6<br/>value = [3, 1, 0, 2]<br/>class = l>, fillcolor="#f8e0ce"] ;
719 -> 720 ;
721 [label=<frontal acc &le; -2.76<br/>gini = 0.444<br/>samples = 3<br/>value = [0, 1, 0, 2]<br/>class = e>, fillcolor="#eb9cf2"] ;
720 -> 721 ;
722 [label=<gini = 0.0<br/>samples = 1<br/>value = [0, 1, 0, 0]<br/>class = a>, fillcolor="#47e539"] ;
721 -> 722 ;
723 [label=<gini = 0.0<br/>samples = 2<br/>value = [0, 0, 0, 2]<br/>class = e>, fillcolor="#d739e5"] ;
721 -> 723 ;
724 [label=<gini = 0.0<br/>samples = 3<br/>value = [3, 0, 0, 0]<br/>class = l>, fillcolor="#e58139"] ;
720 -> 724 ;
725 [label=<phase &le; -1.235<br/>gini = 0.049<br/>samples = 362<br/>value = [353, 6, 0, 3]<br/>class = l>, fillcolor="#e6843e"] ;
719 -> 725 ;
726 [label=<phase &le; -1.274<br/>gini = 0.161<br/>samples = 69<br/>value = [63, 5, 0, 1]<br/>class = l>, fillcolor="#e78d4c"] ;
725 -> 726 ;
727 [label=<lateral acc &le; -0.342<br/>gini = 0.115<br/>samples = 66<br/>value = [62, 3, 0, 1]<br/>class = l>, fillcolor="#e78946"] ;
726 -> 727 ;
728 [label=<frontal acc &le; -1.1<br/>gini = 0.32<br/>samples = 16<br/>value = [13, 2, 0, 1]<br/>class = l>, fillcolor="#eb9c63"] ;
727 -> 728 ;
729 [label=<gini = 0.0<br/>samples = 13<br/>value = [13, 0, 0, 0]<br/>class = l>, fillcolor="#e58139"] ;
728 -> 729 ;
730 [label=<phase &le; -1.332<br/>gini = 0.444<br/>samples = 3<br/>value = [0, 2, 0, 1]<br/>class = a>, fillcolor="#a3f29c"] ;
728 -> 730 ;
731 [label=<gini = 0.0<br/>samples = 2<br/>value = [0, 2, 0, 0]<br/>class = a>, fillcolor="#47e539"] ;
730 -> 731 ;
732 [label=<gini = 0.0<br/>samples = 1<br/>value = [0, 0, 0, 1]<br/>class = e>, fillcolor="#d739e5"] ;
730 -> 732 ;
733 [label=<lateral acc &le; -0.081<br/>gini = 0.039<br/>samples = 50<br/>value = [49, 1, 0, 0]<br/>class = l>, fillcolor="#e6843d"] ;
727 -> 733 ;
734 [label=<gini = 0.0<br/>samples = 43<br/>value = [43, 0, 0, 0]<br/>class = l>, fillcolor="#e58139"] ;
733 -> 734 ;
735 [label=<frequency &le; -0.457<br/>gini = 0.245<br/>samples = 7<br/>value = [6, 1, 0, 0]<br/>class = l>, fillcolor="#e9965a"] ;
733 -> 735 ;
736 [label=<gini = 0.0<br/>samples = 6<br/>value = [6, 0, 0, 0]<br/>class = l>, fillcolor="#e58139"] ;
735 -> 736 ;
737 [label=<gini = 0.0<br/>samples = 1<br/>value = [0, 1, 0, 0]<br/>class = a>, fillcolor="#47e539"] ;
735 -> 737 ;
738 [label=<frequency &le; 1.313<br/>gini = 0.444<br/>samples = 3<br/>value = [1, 2, 0, 0]<br/>class = a>, fillcolor="#a3f29c"] ;
726 -> 738 ;
739 [label=<gini = 0.0<br/>samples = 2<br/>value = [0, 2, 0, 0]<br/>class = a>, fillcolor="#47e539"] ;
738 -> 739 ;
740 [label=<gini = 0.0<br/>samples = 1<br/>value = [1, 0, 0, 0]<br/>class = l>, fillcolor="#e58139"] ;
738 -> 740 ;
741 [label=<lateral acc &le; -0.342<br/>gini = 0.02<br/>samples = 293<br/>value = [290, 1, 0, 2]<br/>class = l>, fillcolor="#e5823b"] ;
725 -> 741 ;
742 [label=<phase &le; -0.744<br/>gini = 0.059<br/>samples = 99<br/>value = [96, 1, 0, 2]<br/>class = l>, fillcolor="#e6853f"] ;
741 -> 742 ;
743 [label=<frontal acc &le; -1.144<br/>gini = 0.164<br/>samples = 34<br/>value = [31, 1, 0, 2]<br/>class = l>, fillcolor="#e78d4c"] ;
742 -> 743 ;
744 [label=<gini = 0.0<br/>samples = 30<br/>value = [30, 0, 0, 0]<br/>class = l>, fillcolor="#e58139"] ;
743 -> 744 ;
745 [label=<frontal acc &le; -1.041<br/>gini = 0.625<br/>samples = 4<br/>value = [1, 1, 0, 2]<br/>class = e>, fillcolor="#f2bdf6"] ;
743 -> 745 ;
746 [label=<gini = 0.0<br/>samples = 2<br/>value = [0, 0, 0, 2]<br/>class = e>, fillcolor="#d739e5"] ;
745 -> 746 ;
747 [label=<phase &le; -0.991<br/>gini = 0.5<br/>samples = 2<br/>value = [1, 1, 0, 0]<br/>class = l>, fillcolor="#ffffff"] ;
745 -> 747 ;
748 [label=<gini = 0.0<br/>samples = 1<br/>value = [1, 0, 0, 0]<br/>class = l>, fillcolor="#e58139"] ;
747 -> 748 ;
749 [label=<gini = 0.0<br/>samples = 1<br/>value = [0, 1, 0, 0]<br/>class = a>, fillcolor="#47e539"] ;
747 -> 749 ;
750 [label=<gini = 0.0<br/>samples = 65<br/>value = [65, 0, 0, 0]<br/>class = l>, fillcolor="#e58139"] ;
742 -> 750 ;
751 [label=<gini = 0.0<br/>samples = 194<br/>value = [194, 0, 0, 0]<br/>class = l>, fillcolor="#e58139"] ;
741 -> 751 ;
752 [label=<RSSI &le; 0.509<br/>gini = 0.314<br/>samples = 113<br/>value = [91, 22, 0, 0]<br/>class = l>, fillcolor="#eb9f69"] ;
718 -> 752 ;
753 [label=<lateral acc &le; -0.277<br/>gini = 0.254<br/>samples = 107<br/>value = [91, 16, 0, 0]<br/>class = l>, fillcolor="#ea975c"] ;
752 -> 753 ;
754 [label=<RSSI &le; 0.137<br/>gini = 0.245<br/>samples = 7<br/>value = [1, 6, 0, 0]<br/>class = a>, fillcolor="#66e95a"] ;
753 -> 754 ;
755 [label=<gini = 0.0<br/>samples = 1<br/>value = [1, 0, 0, 0]<br/>class = l>, fillcolor="#e58139"] ;
754 -> 755 ;
756 [label=<gini = 0.0<br/>samples = 6<br/>value = [0, 6, 0, 0]<br/>class = a>, fillcolor="#47e539"] ;
754 -> 756 ;
757 [label=<frontal acc &le; -0.865<br/>gini = 0.18<br/>samples = 100<br/>value = [90, 10, 0, 0]<br/>class = l>, fillcolor="#e88f4f"] ;
753 -> 757 ;
758 [label=<vertical acc &le; 1.199<br/>gini = 0.375<br/>samples = 8<br/>value = [2, 6, 0, 0]<br/>class = a>, fillcolor="#84ee7b"] ;
757 -> 758 ;
759 [label=<gini = 0.0<br/>samples = 6<br/>value = [0, 6, 0, 0]<br/>class = a>, fillcolor="#47e539"] ;
758 -> 759 ;
760 [label=<gini = 0.0<br/>samples = 2<br/>value = [2, 0, 0, 0]<br/>class = l>, fillcolor="#e58139"] ;
758 -> 760 ;
761 [label=<frontal acc &le; -0.777<br/>gini = 0.083<br/>samples = 92<br/>value = [88, 4, 0, 0]<br/>class = l>, fillcolor="#e68742"] ;
757 -> 761 ;
